SVM-light Version V6.02
2 # kernel type
3 # kernel parameter -d 
1.5e-07 # kernel parameter -g 
1 # kernel parameter -s 
1 # kernel parameter -r 
empty# kernel parameter -u 
34 # highest feature index 
549 # number of training documents 
538 # number of support vectors plus 1 
0.9983561 # threshold b, each following line is a SV (starting with alpha*y)
-0.022544552792169270105659961700439 1:1 2:3300 3:29 4:0.17 5:0.23 6:0.15000001 7:0 8:0 9:0 10:0 11:0 12:3.3 13:4.5999999 14:5.0999999 15:0.5 16:7.3000002 17:3.2 18:3.2 19:8 20:0.5 21:13.2 22:8.8000002 23:29 24:24 25:6.1999998 26:1.7 27:1.6 28:5 29:12 30:0 31:0.11538462 32:8 33:3 34:5 #
0.018184146310544171964984627720696 1:1 2:5000 3:18 4:-0.19 5:-0.050000001 6:-0.14 7:0 8:0 9:0 10:0 11:0 12:8.3000002 13:8.3000002 14:6.6999998 15:0.69999999 16:6.3000002 17:9.8999996 18:9.8999996 19:12 20:5.8000002 21:14 22:13.3 23:4 24:5 25:7.8000002 26:7.3000002 27:14.6 28:14 29:26 30:0 31:0.24074075 32:2 33:1 34:4 #
-0.26430611306159335072152316570282 1:20 2:5000 3:25.5 4:0.059999999 5:-0.23 6:0.1 7:0 8:0 9:0 10:0 11:0 12:6.3000002 13:6.5999999 14:6.6999998 15:1.3 16:10 17:10.4 18:12.9 19:11 20:4.4000001 21:21.4 22:14.2 23:13 24:13 25:1.4 26:24 27:5.8000002 28:33 29:51 30:2 31:0.17465754 32:2 33:2 34:4 #
0.018184146310544171964984627720696 1:0 2:3000 3:23.5 4:0.25999999 5:0.31999999 6:0.34999999 7:0 8:0 9:0 10:0 11:0 12:0 13:0 14:1.8 15:0 16:0 17:0 18:0 19:3 20:0 21:0 22:3.4000001 23:31 24:31 25:0 26:0 27:0 28:0 29:0 30:0 31:0 32:12 33:13 34:7 #
-0.60613821035147241733653800110915 1:1 2:3000 3:17.5 4:0.090000004 5:-0.14 6:0.20999999 7:0 8:0 9:0 10:0 11:0 12:4 13:4 14:4.3000002 15:0 16:8.8000002 17:4.5 18:4.5 19:8 20:4.5 21:4.5 22:6.5999999 23:19 24:21 25:0 26:0 27:0 28:1 29:3 30:0 31:0.0084033618 32:12 33:12 34:6 #
0.018184146310544171964984627720696 1:3 2:5000 3:17.5 4:-0.16 5:-0.029999999 6:-0.23 7:0 8:0 9:0 10:0 11:0 12:7 13:9.6000004 14:8.8000002 15:1.3 16:5.4000001 17:7.0999999 18:13.3 19:15 20:4.8000002 21:21.799999 22:13.7 23:2 24:2 25:6.0999999 26:4.4000001 27:10.8 28:56 29:121 30:6 31:0.24444444 32:1 33:1 34:1 #
0.018184146310544171964984627720696 1:0 2:3000 3:29 4:0.17 5:0.23 6:0.15000001 7:0 8:0 9:0 10:0 11:0 12:3.7 13:1.8 14:1.7 15:0.40000001 16:7.9000001 17:2.9000001 18:0 19:3 20:-1.3 21:7.3000002 22:4 23:29 24:24 25:0 26:0 27:0 28:0 29:0 30:0 31:0 32:12 33:13 34:5 #
-0.60613821035147241733653800110915 1:0 2:3000 3:24 4:0.13 5:0.029999999 6:0 7:0 8:0 9:0 10:0 11:0 12:4.3000002 13:4.4000001 14:3.0999999 15:0.40000001 16:6 17:5.6999998 18:5.4000001 19:5 20:1.9 21:8.8999996 22:5.3000002 23:26 24:17 25:0 26:4.3000002 27:9.1999998 28:20 29:32 30:0 31:0.15238096 32:2 33:2 34:5 #
0.018184146310544171964984627720696 1:14 2:5000 3:23.5 4:-0.059999999 5:0.079999998 6:0.050000001 7:0 8:0 9:0 10:0 11:0 12:7.3000002 13:7.3000002 14:6.1999998 15:0.30000001 16:8 17:13.2 18:13.2 19:11 20:4.4000001 21:22.1 22:12.9 23:9 24:10 25:4 26:14.1 27:21.6 28:13 29:22 30:1 31:0.16541353 32:2 33:2 34:2 #
0.018184146310544171964984627720696 1:7 2:3000 3:22 4:-0.15000001 5:0.66000003 6:-0.029999999 7:0 8:0.2 9:0 10:0 11:7 12:6 13:6.1999998 14:5.5 15:0 16:7 17:9.1999998 18:9.5 19:9 20:1.3 21:17.6 22:10.5 23:24 24:17 25:0 26:4.0999999 27:1.4 28:22 29:32 30:0 31:0.15384616 32:2 33:3 34:5 #
0.018184146310544171964984627720696 1:2 2:4900 3:19.799999 4:-0.02 5:0.58999997 6:0.090000004 7:0 8:0 9:0 10:0 11:0 12:4.3000002 13:6.3000002 14:5.9000001 15:0.69999999 16:8.6000004 17:9.5 18:11.4 19:9 20:3.9000001 21:18.799999 22:8.8000002 23:32 24:32 25:2 26:24.9 27:0 28:43 29:77 30:4 31:0.18554217 32:2 33:2 34:1 #
0.018184146310544171964984627720696 1:0 2:3000 3:18.799999 4:0 5:-0.14 6:0.050000001 7:0 8:0 9:0 10:0 11:0 12:0 13:0.2 14:3.3 15:0 16:19.700001 17:0 18:0 19:6 20:-2.3 21:4 22:5.1999998 23:11 24:17 25:0 26:0 27:0 28:0 29:0 30:0 31:0 32:10 33:11 34:4 #
0.018184146310544171964984627720696 1:20 2:5000 3:24.5 4:0.20999999 5:0.25999999 6:0.25999999 7:0 8:0 9:0 10:0 11:0 12:7.6999998 13:7.5999999 14:6.3000002 15:1.4 16:7.9000001 17:11 18:11.2 19:11 20:9.3000002 21:13.1 22:14 23:30 24:30 25:12.4 26:0 27:12.7 28:20 29:38 30:1 31:0.19095477 32:3 33:2 34:2 #
0.018184146310544171964984627720696 1:1 2:3000 3:18.799999 4:0 5:-0.14 6:0.050000001 7:0 8:0.30000001 9:0 10:0 11:2.7 12:3.3 13:1.8 14:5 15:0.2 16:8.8000002 17:7.9000001 18:11.9 19:9 20:-3.5 21:9.1999998 22:10.4 23:11 24:17 25:1.6 26:22.200001 27:0 28:3 29:9 30:1 31:0.11538462 32:7 33:5 34:1 #
-0.60613821035147241733653800110915 1:0 2:3000 3:16.799999 4:-0.07 5:-0.090000004 6:-0.059999999 7:0 8:0 9:0 10:0 11:0 12:2.7 13:3.5999999 14:2.3 15:0.30000001 16:5.6999998 17:6.8000002 18:6.8000002 19:4 20:-1.7 21:11.1 22:3.2 23:8 24:12 25:13.3 26:1.8 27:5.3000002 28:6 29:8 30:1 31:0.086956523 32:4 33:4 34:1 #
0.018184146310544171964984627720696 1:6 2:5000 3:22.299999 4:-0.14 5:-0.14 6:-0.28999999 7:0.30000001 8:0.1 9:0 10:0 11:-9 12:8.6999998 13:7.0999999 14:6.5 15:1.3 16:8.6999998 17:20.9 18:15.6 19:11 20:8.3999996 21:22.799999 22:13.1 23:2 24:2 25:0 26:28.700001 27:20.799999 28:40 29:56 30:4 31:0.1691843 32:2 33:4 34:1 #
0.018184146310544171964984627720696 1:0 2:3000 3:18 4:-0.19 5:-0.050000001 6:-0.14 7:0.69999999 8:0.40000001 9:0 10:0 11:4 12:4.6999998 13:6.3000002 14:3.5 15:0.60000002 16:7.6999998 17:4.6999998 18:0 19:6 20:3 21:18.799999 22:5.6999998 23:4 24:5 25:0 26:0 27:0 28:0 29:0 30:0 31:0 32:12 33:12 34:4 #
0.018184146310544171964984627720696 1:7 2:5000 3:24.5 4:-0.050000001 5:-0.22 6:-0.19 7:0 8:0 9:0 10:0 11:0 12:9 13:8.1999998 14:6.8000002 15:1.2 16:8.8999996 17:19.700001 18:16.799999 19:11 20:10.7 21:22.799999 22:12.3 23:5 24:9 25:26 26:18.799999 27:0 28:38 29:50 30:3 31:0.18587361 32:1 33:1 34:2 #
0.018184146310544171964984627720696 1:1 2:3000 3:23.299999 4:0.02 5:-0.15000001 6:0.11 7:0 8:0 9:0 10:0 11:0 12:1 13:1.9 14:0.89999998 15:0.2 16:8.3000002 17:2 18:2.3 19:1 20:0.2 21:5.3000002 22:1.9 23:27 24:30 25:2.3 26:0 27:0 28:1 29:1 30:0 31:0.010526316 32:9 33:10 34:4 #
0.018184146310544171964984627720696 1:2 2:5000 3:26 4:-0.15000001 5:0.059999999 6:-0.059999999 7:0 8:0 9:0 10:0 11:0 12:5.5 13:5.5 14:5.0999999 15:0.5 16:5.6999998 17:6.1999998 18:6.1999998 19:9 20:3.0999999 21:9.1999998 22:9.6000004 23:15 24:9 25:0 26:0 27:0 28:6 29:10 30:0 31:0.033112582 32:9 33:9 34:7 #
0.018184146310544171964984627720696 1:12 2:3000 3:20.5 4:-0.02 5:0.13 6:-0.13 7:0 8:0 9:0 10:0 11:0 12:7.6999998 13:5.4000001 14:7.8000002 15:1.1 16:6.0999999 17:10.2 18:7.4000001 19:13 20:2.2 21:12.6 22:13.9 23:24 24:5 25:14.2 26:16.4 27:0 28:31 29:55 30:2 31:0.14211886 32:4 33:4 34:2 #
0.018184146310544171964984627720696 1:8 2:5000 3:25.799999 4:0.079999998 5:-0.14 6:0.1 7:0 8:0 9:0 10:0 11:0 12:10 13:8.5 14:8.3999996 15:0.80000001 16:7.5 17:13 18:13.8 19:15 20:6.9000001 21:20.6 22:18.4 23:29 24:32 25:10.9 26:13.3 27:14.8 28:53 29:87 30:3 31:0.24715909 32:1 33:1 34:1 #
0.018184146310544171964984627720696 1:0 2:3000 3:24 4:-0.19 5:-0.1 6:-0.050000001 7:0 8:0 9:0 10:0 11:0 12:0 13:0 14:0 15:0 16:0 17:0 18:0 19:0 20:0 21:0 22:0 23:2 24:8 25:0 26:0 27:0 28:0 29:1 30:0 31:0.0042372881 32:12 33:10 34:8 #
0.018184146310544171964984627720696 1:4 2:5000 3:26.299999 4:-0.18000001 5:0.16 6:-0.059999999 7:0 8:0.1 9:0 10:0 11:3 12:5.6999998 13:7.0999999 14:5.6999998 15:1 16:10.3 17:7.0999999 18:14.8 19:10 20:3.3 21:26.4 22:11.5 23:17 24:9 25:0 26:1.5 27:6.3000002 28:37 29:74 30:4 31:0.22289157 32:3 33:2 34:2 #
0.018184146310544171964984627720696 1:6 2:3000 3:24.299999 4:-0.039999999 5:0.40000001 6:0.15000001 7:0 8:0 9:0 10:0 11:0 12:1.5 13:1.5 14:3.7 15:0.5 16:11.3 17:8.6999998 18:8.6999998 19:6 20:6.9000001 21:10.5 22:6.5999999 23:20 24:26 25:0 26:0 27:0 28:2 29:3 30:2 31:0.01775148 32:10 33:10 34:1 #
0.018184146310544171964984627720696 1:5 2:5000 3:22.299999 4:-0.050000001 5:-0.07 6:-0.07 7:0 8:0.89999998 9:0.5 10:0.2 11:3.3 12:5 13:7.3000002 14:6.8000002 15:1.2 16:7.1999998 17:10.8 18:13.2 19:13 20:6 21:20.4 22:11 23:5 24:8 25:10.9 26:10.1 27:11.4 28:59 29:85 30:5 31:0.17137097 32:3 33:3 34:3 #
0.018184146310544171964984627720696 1:0 2:3000 3:19.5 4:0.090000004 5:-0.31 6:-0.029999999 7:0.30000001 8:0.30000001 9:0 10:0 11:7 12:0.30000001 13:0.30000001 14:3.3 15:0 16:14 17:1 18:1 19:6 20:-0.2 21:2.3 22:5 23:20 24:32 25:0.69999999 26:2.4000001 27:0 28:1 29:1 30:0 31:0.0042016809 32:10 33:10 34:5 #
0.018184146310544171964984627720696 1:12 2:5000 3:23 4:0.029999999 5:0.31999999 6:0.039999999 7:0 8:0.1 9:0 10:0 11:-2 12:8.3000002 13:5.9000001 14:6.9000001 15:1 16:7.8000002 17:11.5 18:10.5 19:11 20:2.8 21:18.200001 22:11.4 23:31 24:31 25:20.5 26:6.8000002 27:7.1999998 28:41 29:75 30:5 31:0.16778524 32:4 33:2 34:1 #
0.018184146310544171964984627720696 1:0 2:3000 3:20.799999 4:-0.14 5:-0.039999999 6:-0.0099999998 7:0 8:0 9:0 10:0 11:0 12:1.7 13:2.4000001 14:1.4 15:0.40000001 16:5.6999998 17:3.0999999 18:3.0999999 19:2 20:-1.2 21:9.6000004 22:2.4000001 23:3 24:10 25:1.8 26:7.5999999 27:0 28:2 29:5 30:1 31:0.040650405 32:9 33:6 34:2 #
0.018184146310544171964984627720696 1:0 2:5000 3:23 4:-0.19 5:-0.07 6:-0.039999999 7:0 8:0 9:0 10:0 11:0 12:7 13:7 14:6.5999999 15:0.80000001 16:8.3999996 17:15.9 18:12.1 19:11 20:4.5999999 21:19.5 22:13.4 23:1 24:8 25:24.799999 26:15.1 27:0 28:38 29:76 30:3 31:0.16814159 32:4 33:3 34:3 #
0.018184146310544171964984627720696 1:0 2:3000 3:23.799999 4:0.079999998 5:0.090000004 6:0.07 7:0 8:0 9:0 10:0 11:0 12:1.7 13:3.3 14:0.60000002 15:0.60000002 16:2.7 17:1.2 18:1.2 19:1 20:-0.60000002 21:8.8999996 22:1.1 23:23 24:7 25:0 26:1.7 27:1.9 28:2 29:4 30:0 31:0.032000002 32:7 33:7 34:5 #
0.018184146310544171964984627720696 1:5 2:5000 3:15.8 4:0.02 5:-0.07 6:-0.059999999 7:0 8:0 9:0 10:0 11:0 12:9 13:7.4000001 14:8 15:0.5 16:9.6999998 17:15.5 18:14.7 19:14 20:6.5999999 21:22.799999 22:11.5 23:9 24:9 25:16.200001 26:9.3000002 27:20.9 28:55 29:86 30:4 31:0.22872341 32:1 33:1 34:1 #
0.018184146310544171964984627720696 1:0 2:3000 3:18.299999 4:-0.0099999998 5:-0.1 6:-0.090000004 7:0 8:0 9:0 10:0 11:0 12:4 13:4 14:1.8 15:0 16:17.299999 17:8.8999996 18:8.8999996 19:3 20:8.8999996 21:8.8999996 22:3.8 23:8 24:6 25:0 26:0 27:0 28:2 29:4 30:0 31:0.013157895 32:9 33:9 34:7 #
0.018184146310544171964984627720696 1:2 2:4900 3:21.299999 4:-0.14 5:-0.30000001 6:-0.31999999 7:0.30000001 8:0.5 9:0.40000001 10:0.30000001 11:-3 12:6.3000002 13:6.5 14:6.4000001 15:0.5 16:3.7 17:4.5 18:6.1999998 19:12 20:2.4000001 21:10.1 22:12.8 23:1 24:5 25:3.0999999 26:7.1999998 27:3.3 28:14 29:28 30:0 31:0.175 32:5 33:2 34:6 #
0.018184146310544171964984627720696 1:0 2:3000 3:20.299999 4:0.029999999 5:-0.12 6:-0.059999999 7:0 8:0.30000001 9:0 10:0 11:7 12:8 13:7.3000002 14:5.1999998 15:0 16:7.0999999 17:12 18:10.8 19:8 20:2 21:19.6 22:9.6000004 23:21 24:12 25:1.4 26:22 27:12.7 28:21 29:30 30:0 31:0.17045455 32:2 33:2 34:5 #
0.018184146310544171964984627720696 1:10 2:4900 3:22.799999 4:0.029999999 5:0.090000004 6:-0.090000004 7:0.30000001 8:0.1 9:0 10:0 11:6 12:8.6999998 13:7.0999999 14:6.9000001 15:0.89999998 16:7.9000001 17:18.1 18:11.7 19:12 20:3 21:20.4 22:11.6 23:24 24:7 25:0 26:29.200001 27:9 28:40 29:61 30:1 31:0.2210145 32:1 33:1 34:3 #
0.018184146310544171964984627720696 1:1 2:3000 3:24.299999 4:0.059999999 5:0.039999999 6:0.07 7:0.30000001 8:0.30000001 9:0.2 10:0 11:2 12:3.7 13:3.7 14:4.9000001 15:0 16:8.1000004 17:4.6999998 18:4.6999998 19:8 20:4.3000002 21:5.0999999 22:8.3999996 23:30 24:32 25:4.4000001 26:5.1999998 27:4.5 28:5 29:11 30:0 31:0.10377359 32:4 33:4 34:2 #
0.018184146310544171964984627720696 1:22 2:4900 3:24.5 4:-0.02 5:0.18000001 6:-0.0099999998 7:1.3 8:1 9:0.40000001 10:0.2 11:0.5 12:6.3000002 13:6.8000002 14:7.4000001 15:0.5 16:7.3000002 17:14.8 18:11 19:13 20:-0.5 21:22.6 22:14.5 23:16 24:11 25:33.799999 26:7.5 27:3.0999999 28:25 29:44 30:2 31:0.20091324 32:4 33:2 34:4 #
0.018184146310544171964984627720696 1:0 2:3000 3:23.799999 4:0.28999999 5:0.18000001 6:0.38999999 7:1 8:0.80000001 9:0 10:0 11:-2 12:4.3000002 13:3.5 14:0.69999999 15:0.80000001 16:4.8000002 17:7.0999999 18:7.3000002 19:1 20:2.8 21:11.8 22:1.3 23:32 24:32 25:0 26:13.2 27:5.3000002 28:11 29:14 30:2 31:0.083832338 32:5 33:6 34:1 #
0.018184146310544171964984627720696 1:3 2:4900 3:30.299999 4:-0.079999998 5:0.79000002 6:-0.0099999998 7:0 8:0 9:0.30000001 10:0 11:0 12:5 13:7 14:4.6999998 15:0.60000002 16:7.0999999 17:9.1000004 18:10.3 19:7 20:1 21:19.6 22:9.8000002 23:31 24:27 25:0 26:14.9 27:0 28:28 29:51 30:1 31:0.15269461 32:3 33:3 34:4 #
0.018184146310544171964984627720696 1:1 2:3000 3:16.5 4:-0.050000001 5:-0.19 6:-0.30000001 7:0.5 8:0.5 9:0.30000001 10:0.5 11:-2 12:3 13:3 14:3.4000001 15:1.5 16:1.5 17:1.4 18:1.4 19:6 20:1 21:1.7 22:5.4000001 23:4 24:2 25:0 26:0 27:1.1 28:2 29:5 30:0 31:0.035211269 32:9 33:9 34:4 #
0.018184146310544171964984627720696 1:0 2:4900 3:23 4:-0.02 5:0.38 6:0.029999999 7:0 8:0 9:0 10:0 11:0 12:8 13:7.8000002 14:4.9000001 15:1.5 16:5.5 17:10.6 18:10.3 19:7 20:8.5 21:12 22:9.5 23:22 24:18 25:12.6 26:10.5 27:8.8000002 28:12 29:29 30:2 31:0.17365269 32:4 33:3 34:2 #
0.018184146310544171964984627720696 1:2 2:3000 3:22 4:0.090000004 5:0.02 6:0.18000001 7:0 8:0 9:0 10:0 11:0 12:5 13:5 14:4.3000002 15:0.30000001 16:8.6999998 17:8.6999998 18:8.6999998 19:8 20:-3.0999999 21:20.4 22:9.5 23:11 24:18 25:2.2 26:1.6 27:22.200001 28:4 29:14 30:1 31:0.11965812 32:6 33:4 34:1 #
0.018184146310544171964984627720696 1:2 2:4900 3:21.299999 4:0.07 5:-0.11 6:-0.1 7:0.30000001 8:0.1 9:0 10:0 11:22 12:6 13:6.5 14:7.5 15:0.60000002 16:6.5999999 17:11.1 18:11.5 19:12 20:5 21:18 22:13.6 23:12 24:4 25:2.2 26:16 27:15.2 28:46 29:73 30:5 31:0.1721698 32:2 33:2 34:2 #
0.018184146310544171964984627720696 1:0 2:3000 3:20.799999 4:0.02 5:-0.12 6:-0.02 7:0 8:0 9:0 10:0 11:0 12:2 13:2 14:0 15:0 16:18 17:11.6 18:11.6 19:0 20:11.6 21:11.6 22:0 23:10 24:8 25:0 26:0 27:0 28:2 29:2 30:1 31:0.0087719299 32:9 33:11 34:4 #
0.018184146310544171964984627720696 1:12 2:4900 3:23 4:0.029999999 5:0.31999999 6:0.039999999 7:0 8:0.1 9:0.30000001 10:0 11:3 12:7.6999998 13:5.4000001 14:6.9000001 15:0.69999999 16:7.3000002 17:13.1 18:7.9000001 19:11 20:2.9000001 21:12.9 22:13.2 23:31 24:31 25:10.6 26:11.2 27:17.4 28:43 29:66 30:1 31:0.147651 32:3 33:3 34:4 #
0.018184146310544171964984627720696 1:0 2:3000 3:19.5 4:-0.16 5:-0.27000001 6:-0.23 7:0 8:0 9:0 10:0 11:0 12:0 13:0 14:2.0999999 15:0 16:0 17:0 18:0 19:4 20:0 21:0 22:2.9000001 23:2 24:1 25:0 26:0 27:0 28:0 29:0 30:0 31:0 32:8 33:10 34:4 #
0.018184146310544171964984627720696 1:1 2:4900 3:24 4:-0.16 5:0.050000001 6:-0.22 7:0 8:0.1 9:0 10:0 11:-1 12:5 13:6.5999999 14:5.0999999 15:0.80000001 16:8.6999998 17:8.1000004 18:12.4 19:8 20:2.9000001 21:21.799999 22:9.1000004 23:8 24:3 25:0 26:0 27:1.5 28:39 29:61 30:3 31:0.16353887 32:2 33:3 34:4 #
0.018184146310544171964984627720696 1:6 2:3000 3:28.5 4:0.0099999998 5:0.46000001 6:0.17 7:0 8:0 9:0 10:0 11:0 12:5 13:5 14:4.4000001 15:0.69999999 16:6.6999998 17:8.3000002 18:8.3000002 19:7 20:-0.1 21:16.799999 22:8.1999998 23:24 24:29 25:0 26:0 27:5.1999998 28:9 29:14 30:1 31:0.071794875 32:6 33:6 34:4 #
0.018184146310544171964984627720696 1:0 2:4900 3:20.299999 4:0.1 5:-0.23999999 6:0.079999998 7:0.30000001 8:0.1 9:0 10:0 11:11 12:6.6999998 13:5.5 14:4.5 15:0.5 16:9.3999996 17:14.3 18:11.3 19:8 20:4.4000001 21:18.200001 22:9.6000004 23:15 24:17 25:13.3 26:17.5 27:12.2 28:46 29:61 30:3 31:0.15803109 32:3 33:3 34:2 #
0.018184146310544171964984627720696 1:1 2:3000 3:18.799999 4:0.039999999 5:-0.0099999998 6:-0.0099999998 7:0 8:0 9:0 10:0 11:0 12:3 13:3 14:4.4000001 15:0.69999999 16:7.5999999 17:4.3000002 18:4.3000002 19:7 20:0.5 21:8 22:6.8000002 23:10 24:9 25:5.8000002 26:7 27:0 28:6 29:9 30:0 31:0.063829787 32:7 33:6 34:3 #
0.018184146310544171964984627720696 1:7 2:4900 3:32.5 4:-0.0099999998 5:0.58999997 6:0.079999998 7:0.30000001 8:0.1 9:0 10:0.1 11:5 12:4.3000002 13:5.8000002 14:6.5999999 15:0.89999998 16:7.4000001 17:7.6999998 18:10 19:10 20:2.9000001 21:17.200001 22:14.1 23:32 24:31 25:0 26:4.5999999 27:15 28:51 29:75 30:3 31:0.16556291 32:2 33:2 34:3 #
0.018184146310544171964984627720696 1:0 2:3000 3:21.299999 4:0.039999999 5:-0.16 6:-0.1 7:0 8:0 9:0 10:0 11:0 12:1.7 13:1.7 14:1.7 15:0 16:13.2 17:3.2 18:3.2 19:3 20:-0.89999998 21:7.3000002 22:3 23:9 24:3 25:1.8 26:7.8000002 27:0 28:3 29:5 30:0 31:0.010526316 32:12 33:12 34:6 #
0.018184146310544171964984627720696 1:2 2:4900 3:24.799999 4:-0.090000004 5:0 6:0.050000001 7:0 8:0.1 9:0 10:0 11:3 12:6 13:7 14:6.0999999 15:0.89999998 16:9.5 17:4.5 18:13.2 19:11 20:2.0999999 21:24.299999 22:12.5 23:12 24:22 25:0 26:9.3999996 27:2.5 28:42 29:87 30:4 31:0.19683258 32:4 33:2 34:3 #
-0.57763246352396890870295464992523 1:5 2:4800 3:23.799999 4:0.039999999 5:-0.20999999 6:0.059999999 7:0 8:0 9:0 10:0 11:0 12:7 13:6.9000001 14:6.5999999 15:0.80000001 16:7.5 17:10.5 18:10.6 19:11 20:4.3000002 21:17 22:12.7 23:11 24:16 25:15.1 26:0 27:0 28:34 29:68 30:2 31:0.17128463 32:4 33:3 34:3 #
0.018184146310544171964984627720696 1:2 2:3000 3:17.5 4:-0.02 5:0.029999999 6:-0.050000001 7:0 8:0.30000001 9:0.30000001 10:0 11:0 12:4.6999998 13:4 14:3 15:0.5 16:7.3000002 17:9.6999998 18:6.4000001 19:6 20:1.1 21:11.7 22:6.0999999 23:21 24:13 25:7.8000002 26:15.6 27:5.8000002 28:15 29:24 30:1 31:0.10909091 32:4 33:4 34:3 #
0.018184146310544171964984627720696 1:2 2:4900 3:19.299999 4:-0.0099999998 5:-0.12 6:-0.07 7:0.69999999 8:0.40000001 9:0.2 10:0 11:6.1999998 12:7 13:7.8000002 14:7.4000001 15:0.69999999 16:9.1999998 17:11 18:14.8 19:12 20:8.6000004 21:21 22:11.7 23:8 24:7 25:11.9 26:8.6000004 27:12.5 28:58 29:96 30:4 31:0.19238476 32:2 33:1 34:1 #
0.018184146310544171964984627720696 1:0 2:3000 3:20.299999 4:0.13 5:0.2 6:0.18000001 7:0 8:0 9:0 10:0 11:0 12:1 13:1 14:2.5 15:0.5 16:0 17:0 18:0 19:4 20:0 21:0 22:4.1999998 23:28 24:29 25:0 26:0 27:0 28:1 29:2 30:0 31:0.01980198 32:9 33:9 34:2 #
0.018184146310544171964984627720696 1:5 2:4800 3:23.799999 4:0.079999998 5:0.090000004 6:0.07 7:0 8:0 9:0 10:0 11:0 12:7.6999998 13:7.3000002 14:6 15:1.2 16:9.1999998 17:10.3 18:10.3 19:10 20:6.3000002 21:25.1 22:12.4 23:23 24:7 25:8 26:11.4 27:11.5 28:13 29:22 30:0 31:0.176 32:3 33:2 34:5 #
0.018184146310544171964984627720696 1:2 2:3000 3:21.5 4:0.14 5:-0.31 6:0.23 7:0 8:0 9:0 10:0 11:0 12:5.6999998 13:4.3000002 14:4.5 15:0.30000001 16:5.8000002 17:5.4000001 18:4.9000001 19:8 20:0.69999999 21:9 22:8.8000002 23:22 24:28 25:1.5 26:11.5 27:3.3 28:14 29:25 30:0 31:0.1 32:5 33:5 34:5 #
0.018184146310544171964984627720696 1:2 2:4800 3:24.5 4:-0.14 5:-0.039999999 6:-0.20999999 7:0.30000001 8:0.2 9:0 10:0 11:7 12:4.6999998 13:6.5 14:5.1999998 15:0.80000001 16:10 17:16.5 18:15.1 19:9 20:10.5 21:19.700001 22:9.1999998 23:4 24:5 25:0 26:23.799999 27:15.3 28:33 29:42 30:3 31:0.22340426 32:1 33:2 34:1 #
0.018184146310544171964984627720696 1:8 2:3000 3:24.5 4:0.19 5:0.2 6:0.23999999 7:0.30000001 8:0.30000001 9:0 10:0 11:6.5 12:3 13:5.6999998 14:5.5999999 15:0.2 16:6.9000001 17:3.3 18:8.6000004 19:9 20:1 21:16.200001 22:12.2 23:26 24:27 25:4.3000002 26:0 27:4.0999999 28:24 29:35 30:0 31:0.14957266 32:2 33:2 34:6 #
0.018184146310544171964984627720696 1:6 2:4800 3:24.299999 4:0.15000001 5:-0.31999999 6:0.25999999 7:0 8:0 9:0 10:0 11:0 12:4.6999998 13:6 14:7 15:0.5 16:8.1999998 17:7.3000002 18:10.3 19:12 20:3.5999999 21:16.9 22:15.6 23:23 24:28 25:0 26:5 27:7.8000002 28:23 29:35 30:1 31:0.16666667 32:2 33:2 34:2 #
0.018184146310544171964984627720696 1:0 2:3000 3:18.299999 4:-0.090000004 5:-0.25999999 6:-0.38999999 7:0 8:0 9:0 10:0 11:0 12:4 13:3.5999999 14:3.4000001 15:0.40000001 16:7.3000002 17:5.5999999 18:4.8000002 19:6 20:3 21:6.6999998 22:4.9000001 23:1 24:2 25:3.3 26:7.3000002 27:0 28:12 29:20 30:0 31:0.13157895 32:4 33:3 34:6 #
0.018184146310544171964984627720696 1:6 2:4800 3:21.5 4:-0.039999999 5:-0.029999999 6:0.039999999 7:0 8:0.1 9:0.2 10:0 11:3 12:7 13:5.4000001 14:7.1999998 15:0.60000002 16:7 17:10.6 18:7.6999998 19:13 20:2.5 21:12.8 22:13.2 23:7 24:23 25:11.2 26:17.4 27:3.2 28:39 29:60 30:1 31:0.14354067 32:3 33:3 34:4 #
0.018184146310544171964984627720696 1:0 2:3000 3:22.299999 4:0.14 5:-0.13 6:0.19 7:0 8:0 9:0 10:0 11:0 12:3 13:3 14:5.1999998 15:0 16:2 17:1.1 18:1.1 19:8 20:-0.5 21:2.7 22:9.5 23:31 24:26 25:0 26:0 27:0 28:1 29:6 30:0 31:0.022304833 32:11 33:8 34:6 #
0.018184146310544171964984627720696 1:1 2:4800 3:25.5 4:0.029999999 5:-0.2 6:0 7:0 8:0 9:0 10:0 11:0 12:8 13:7 14:5.9000001 15:0.80000001 16:7.4000001 17:8.6000004 18:10.1 19:10 20:3.5999999 21:16.6 22:12.3 23:25 24:29 25:0 26:0 27:7.8000002 28:30 29:61 30:1 31:0.16712329 32:4 33:4 34:4 #
0.018184146310544171964984627720696 1:0 2:3000 3:23 4:-0.2 5:0.15000001 6:-0.34 7:0 8:0 9:0 10:0 11:0 12:1.7 13:2.8 14:0.5 15:0.60000002 16:10.9 17:5.4000001 18:4.8000002 19:1 20:2.2 21:7.5 22:0 23:1 24:1 25:0 26:8 27:1.3 28:10 29:15 30:0 31:0.038071066 32:7 33:7 34:10 #
0.018184146310544171964984627720696 1:8 2:4800 3:24.799999 4:0.07 5:0.07 6:-0.0099999998 7:0 8:0.1 9:0 10:0 11:11 12:8.3000002 13:5.8000002 14:6.0999999 15:0.5 16:10.1 17:15 18:12 19:10 20:5.4000001 21:18.5 22:13.4 23:29 24:14 25:17.1 26:14.6 27:13.3 28:57 29:76 30:3 31:0.16135882 32:3 33:3 34:2 #
0.018184146310544171964984627720696 1:1 2:3000 3:18.799999 4:0.039999999 5:-0.0099999998 6:-0.0099999998 7:0.30000001 8:0.5 9:0.30000001 10:0 11:0 12:3.3 13:3.3 14:5.5 15:0.5 16:5.4000001 17:5 18:3.8 19:10 20:1 21:6.5 22:9.1999998 23:10 24:9 25:5.8000002 26:3.5 27:5.8000002 28:8 29:13 30:0 31:0.092198581 32:4 33:4 34:3 #
0.018184146310544171964984627720696 1:7 2:4800 3:23 4:-0.0099999998 5:-0.059999999 6:0.090000004 7:0.30000001 8:0.40000001 9:0.2 10:0 11:6.1999998 12:6.3000002 13:7.8000002 14:6.8000002 15:0.69999999 16:8.8999996 17:10.2 18:14.4 19:12 20:8.3000002 21:20.5 22:11.5 23:12 24:30 25:10.2 26:11.9 27:8.6000004 28:63 29:103 30:4 31:0.18727273 32:2 33:1 34:1 #
0.018184146310544171964984627720696 1:0 2:3000 3:22.5 4:-0.050000001 5:0.039999999 6:-0.0099999998 7:0 8:0 9:0 10:0 11:0 12:2.7 13:2.7 14:0 15:0.30000001 16:7.5999999 17:3 18:3.4000001 19:0 20:0.60000002 21:7 22:0 23:31 24:22 25:3.4000001 26:0 27:0 28:2 29:3 30:0 31:0.028571429 32:7 33:7 34:3 #
0.018184146310544171964984627720696 1:2 2:4700 3:18.799999 4:0.090000004 5:-0.039999999 6:-0.079999998 7:0 8:0 9:0.2 10:0 11:0 12:6.6999998 13:6.3000002 14:7.5 15:0.80000001 16:9.1999998 17:14.1 18:12.8 19:13 20:0.89999998 21:24.700001 22:13.9 23:20 24:4 25:4.6999998 26:7.0999999 27:0 28:13 29:25 30:2 31:0.070028014 32:7 33:7 34:3 #
-1.1490283213788643479347229003906e-07 1:3 2:4700 3:19.299999 4:-0.14 5:-0.14 6:-0.34999999 7:0.30000001 8:0.80000001 9:0.40000001 10:0.1 11:0.5 12:10.3 13:7.8000002 14:7.5999999 15:0.80000001 16:7 17:20.1 18:11.6 19:14 20:1.7 21:21.5 22:15 23:1 24:2 25:11.2 26:15.3 27:33.799999 28:38 29:67 30:2 31:0.22711864 32:1 33:2 34:4 #
0.018184146310544171964984627720696 1:3 2:3000 3:22.799999 4:0.02 5:-0.30000001 6:-0.02 7:0 8:0.1 9:0 10:0.1 11:1 12:5 13:6 14:4.4000001 15:0.40000001 16:5.9000001 17:7.3000002 18:6.5 19:8 20:2 21:11.1 22:9.1999998 23:13 24:24 25:9.8000002 26:2.0999999 27:9.8999996 28:28 29:61 30:0 31:0.20198676 32:4 33:1 34:9 #
0.018184146310544171964984627720696 1:3 2:4700 3:21.799999 4:-0.079999998 5:0.15000001 6:0.07 7:0 8:0 9:0 10:0 11:0 12:7.3000002 13:6.8000002 14:6.0999999 15:1.3 16:8.3999996 17:10.7 18:10.9 19:11 20:8.8999996 21:12.9 22:12.3 23:18 24:20 25:0 26:12.7 27:8 28:15 29:26 30:1 31:0.1595092 32:4 33:2 34:2 #
0.018184146310544171964984627720696 1:0 2:3000 3:15.8 4:-0.23 5:0.07 6:-0.47 7:0.30000001 8:0.30000001 9:0.30000001 10:0.30000001 11:-2 12:2.7 13:2.8 14:2.0999999 15:1.5 16:3.0999999 17:2.2 18:2 19:4 20:1.1 21:3 22:3.2 23:4 24:1 25:3.3 26:2.2 27:0 28:5 29:10 30:0 31:0.044642858 32:7 33:7 34:5 #
0.018184146310544171964984627720696 1:3 2:4700 3:23.299999 4:-0.22 5:0.18000001 6:-0.37 7:0 8:0 9:0 10:0 11:0 12:7.3000002 13:4.1999998 14:6.3000002 15:0.89999998 16:8.5 17:17.200001 18:8.8000002 19:10 20:0.69999999 21:16.9 22:10.8 23:1 24:1 25:14.1 26:16.200001 27:21.200001 28:29 29:44 30:4 31:0.091286309 32:5 33:5 34:2 #
0.018184146310544171964984627720696 1:3 2:3000 3:29 4:0.12 5:0.12 6:0.079999998 7:0 8:0 9:0.30000001 10:0 11:0 12:4.3000002 13:4.6999998 14:4 15:0.5 16:8.6000004 17:6.6999998 18:7 19:7 20:2.7 21:11.4 22:7.8000002 23:31 24:21 25:11.9 26:6.3000002 27:2 28:19 29:28 30:0 31:0.12444445 32:4 33:5 34:4 #
0.018184146310544171964984627720696 1:16 2:4700 3:25.799999 4:-0.0099999998 5:0.68000001 6:0.11 7:0 8:0 9:0 10:0 11:0 12:7.3000002 13:6.4000001 14:6 15:0.60000002 16:8.3999996 17:14.3 18:11.6 19:10 20:4.0999999 21:19.200001 22:11.8 23:32 24:30 25:21.9 26:18.299999 27:2.8 28:39 29:58 30:2 31:0.19269103 32:2 33:2 34:2 #
0.018184146310544171964984627720696 1:0 2:3000 3:19.299999 4:-0.14 5:-0.14 6:-0.34999999 7:0 8:0 9:0 10:0 11:0 12:1.3 13:1 14:1 15:0.1 16:6.0999999 17:4.0999999 18:2.7 19:2 20:-1 21:6.5 22:1.3 23:1 24:2 25:0 26:3 27:9.3000002 28:5 29:8 30:1 31:0.027118644 32:7 33:6 34:6 #
-0.60613821035147241733653800110915 1:6 2:3000 3:21.5 4:0.14 5:-0.17 6:-0.059999999 7:1 8:0.60000002 9:0.30000001 10:0.2 11:9 12:3.3 13:2.5999999 14:3.8 15:0 16:10.4 17:5.9000001 18:4.5999999 19:7 20:0.1 21:9.1999998 22:7.9000001 23:27 24:24 25:11.8 26:5.9000001 27:0 28:8 29:15 30:0 31:0.052447554 32:7 33:6 34:4 #
0.018184146310544171964984627720696 1:3 2:4700 3:25.799999 4:0.029999999 5:0.02 6:0.0099999998 7:0 8:0.2 9:0.2 10:0 11:5.6999998 12:5 13:3.9000001 14:7.3000002 15:0.2 16:7 17:7.6999998 18:7.6999998 19:12 20:1.2 21:9 22:14.3 23:16 24:23 25:5.6999998 26:4 27:13.4 28:8 29:14 30:0 31:0.11023622 32:6 33:4 34:6 #
0.018184146310544171964984627720696 1:1 2:3000 3:21 4:0 5:-0.059999999 6:-0.11 7:0 8:0 9:0 10:0 11:0 12:5 13:4.8000002 14:4.8000002 15:0.5 16:7.4000001 17:7.8000002 18:6.5 19:8 20:3.7 21:9.3000002 22:8.6000004 23:9 24:6 25:5.5999999 26:9.6999998 27:8.1000004 28:26 29:40 30:0 31:0.14760147 32:3 33:3 34:5 #
0.018184146310544171964984627720696 1:2 2:4700 3:19.799999 4:-0.25999999 5:0.090000004 6:-0.47999999 7:0 8:0 9:0 10:0 11:0 12:6.3000002 13:6.6999998 14:6.1999998 15:1.4 16:11.2 17:18.5 18:14.5 19:10 20:6.8000002 21:22.200001 22:11 23:3 24:1 25:24 26:5.8000002 27:25.700001 28:31 29:46 30:2 31:0.184 32:2 33:2 34:2 #
0.018184146310544171964984627720696 1:1 2:3000 3:21.299999 4:-0.039999999 5:-0.059999999 6:0.18000001 7:0 8:0 9:0 10:0 11:0 12:3.3 13:3.3 14:4.5999999 15:0 16:3.2 17:1.7 18:1.7 19:7 20:0.2 21:3.3 22:8 23:14 24:32 25:0 26:0 27:0 28:2 29:11 30:0 31:0.034591194 32:12 33:8 34:7 #
0.018184146310544171964984627720696 1:4 2:4700 3:20.5 4:-0.2 5:0.079999998 6:-0.11 7:0 8:0.1 9:0 10:0 11:11 12:8.3000002 13:5.8000002 14:5.8000002 15:0.60000002 16:9.3999996 17:15.1 18:11.6 19:10 20:4.9000001 21:18.200001 22:12.2 23:10 24:5 25:14.6 26:13.3 27:17.5 28:53 29:71 30:3 31:0.16359447 32:3 33:3 34:2 #
0.018184146310544171964984627720696 1:0 2:3000 3:18.799999 4:-0.090000004 5:-0.050000001 6:-0.02 7:0 8:0 9:0 10:0 11:0 12:4.6999998 13:3.5 14:3.5 15:0.5 16:5.8000002 17:5.4000001 18:4 19:6 20:0.89999998 21:7.0999999 22:6.1999998 23:7 24:6 25:3.3 26:5.8000002 27:7 28:8 29:14 30:0 31:0.079096042 32:5 33:5 34:5 #
0.018184146310544171964984627720696 1:1 2:4700 3:18.799999 4:-0.13 5:-0.090000004 6:-0.25999999 7:0.30000001 8:0.40000001 9:0.80000001 10:0.1 11:9 12:8.3000002 13:4.4000001 14:5 15:0.40000001 16:7.8000002 17:14.5 18:7.9000001 19:9 20:-1.7 21:17.4 22:9.5 23:2 24:2 25:3.9000001 26:0 27:27.9 28:18 29:33 30:2 31:0.0859375 32:5 33:5 34:3 #
-0.08564116525667486712336540222168 1:2 2:4600 3:23 4:-0.050000001 5:0.1 6:-0.13 7:0.30000001 8:0.1 9:0 10:0 11:-9 12:5.3000002 13:6.3000002 14:5.3000002 15:1.3 16:8.8999996 17:15.5 18:13.7 19:9 20:8.3999996 21:19.1 22:11.6 23:19 24:7 25:20.799999 26:13.3 27:12.5 28:31 29:43 30:3 31:0.15693431 32:2 33:4 34:1 #
0.018184146310544171964984627720696 1:0 2:3000 3:15.8 4:-0.23 5:0.07 6:-0.47 7:0 8:0 9:0 10:0 11:0 12:5.6999998 13:4.4000001 14:4 15:0.2 16:5.5 17:7.1999998 18:4.8000002 19:6 20:1.1 21:8.6000004 22:6.4000001 23:4 24:1 25:4.5999999 26:8.8999996 27:8.1000004 28:12 29:22 30:0 31:0.098214284 32:6 33:5 34:5 #
0.018184146310544171964984627720696 1:7 2:4700 3:24.299999 4:-0.0099999998 5:-0.079999998 6:0.17 7:0 8:0 9:0 10:0 11:0 12:6.6999998 13:6.8000002 14:6.6999998 15:0.40000001 16:7 17:12.5 18:12.1 19:11 20:5.8000002 21:18.299999 22:11.6 23:16 24:32 25:15.2 26:14 27:0 28:36 29:55 30:3 31:0.17515923 32:2 33:2 34:2 #
0.018184146310544171964984627720696 1:1 2:3000 3:22.5 4:0.16 5:-0.18000001 6:0.18000001 7:0 8:0 9:0 10:0 11:0 12:5.3000002 13:3.9000001 14:4.1999998 15:0.69999999 16:6.4000001 17:6.4000001 18:6.4000001 19:7 20:0.30000001 21:10 22:6.4000001 23:18 24:5 25:7.4000001 26:3.5 27:8.3000002 28:9 29:16 30:0 31:0.13793103 32:5 33:3 34:4 #
0.018184146310544171964984627720696 1:8 2:4700 3:28.5 4:0.0099999998 5:0.46000001 6:0.17 7:0.30000001 8:0.40000001 9:0 10:0 11:2.5 12:7.6999998 13:6.1999998 14:5.1999998 15:0.80000001 16:13.6 17:18.9 18:15.3 19:8 20:4.0999999 21:26.6 22:11.1 23:24 24:29 25:34.900002 26:13.8 27:8 28:19 29:30 30:2 31:0.15384616 32:3 33:2 34:3 #
0.018184146310544171964984627720696 1:1 2:3000 3:23 4:-0.11 5:-0.02 6:-0.02 7:0 8:0 9:0 10:0 11:0 12:4 13:4.6999998 14:4.6999998 15:1 16:4.8000002 17:6.8000002 18:7.6999998 19:8 20:4.9000001 21:10.6 22:8.3000002 23:17 24:25 25:5.9000001 26:4.1999998 27:10.2 28:15 29:28 30:2 31:0.11965812 32:4 33:3 34:2 #
0.018184146310544171964984627720696 1:0 2:4700 3:19.299999 4:0.059999999 5:-0.14 6:-0.050000001 7:0 8:0.1 9:0 10:0 11:3 12:6 13:6.8000002 14:6.6999998 15:0.80000001 16:9.6999998 17:7.5 18:13 19:11 20:2.4000001 21:23.6 22:11.9 23:7 24:7 25:10.7 26:0 27:9.3999996 28:46 29:95 30:4 31:0.19832985 32:4 33:2 34:3 #
0.018184146310544171964984627720696 1:3 2:3000 3:27 4:0.12 5:-0.079999998 6:0.07 7:0 8:0 9:0 10:0 11:0 12:2.3 13:2 14:4.5999999 15:0 16:13.5 17:7.5999999 18:5.6999998 19:7 20:0.1 21:11.3 22:8.6999998 23:27 24:19 25:9.6000004 26:0 27:0 28:6 29:8 30:1 31:0.017857144 32:10 33:11 34:4 #
0.018184146310544171964984627720696 1:2 2:4700 3:21.5 4:0.14 5:-0.17 6:-0.059999999 7:0 8:0 9:0.30000001 10:0 11:0 12:9 13:7.5 14:5.5999999 15:0.5 16:6.6999998 17:13.3 18:9.5 19:9 20:-0.5 21:19.5 22:12.5 23:27 24:24 25:0 26:10.4 27:2.0999999 28:24 29:47 30:0 31:0.16433567 32:3 33:2 34:4 #
0.018184146310544171964984627720696 1:0 2:3000 3:19.5 4:-0.16 5:0.079999998 6:-0.029999999 7:0 8:0 9:0 10:0 11:0 12:4.3000002 13:4.5 14:4 15:0.30000001 16:5.9000001 17:3.2 18:5.1999998 19:7 20:0.89999998 21:9.3999996 22:6.0999999 23:7 24:15 25:2.3 26:1.8 27:5.5 28:10 29:17 30:0 31:0.14285715 32:2 33:3 34:4 #
0.018184146310544171964984627720696 1:1 2:4700 3:21 4:0.029999999 5:-0.050000001 6:0.059999999 7:0 8:0 9:0 10:0 11:0 12:4.3000002 13:5.9000001 14:6.3000002 15:0.69999999 16:8.3999996 17:8.3999996 18:10.8 19:11 20:3.9000001 21:17.700001 22:11.2 23:24 24:17 25:3.4000001 26:12.4 27:9.3999996 28:47 29:70 30:4 31:0.17811705 32:2 33:2 34:2 #
0.018184146310544171964984627720696 1:0 2:3000 3:25.5 4:0 5:-0.079999998 6:-0.050000001 7:0 8:0 9:0 10:0 11:0 12:5 13:5 14:0.69999999 15:1 16:7.3000002 17:7.3000002 18:7.3000002 19:1 20:0.89999998 21:13.8 22:1.3 23:20 24:11 25:0 26:3.7 27:14.8 28:11 29:14 30:0 31:0.080924854 32:7 33:7 34:8 #
0.018184146310544171964984627720696 1:0 2:4700 3:21.299999 4:-0.07 5:-0.0099999998 6:-0.02 7:4.6999998 8:3.0999999 9:4.6999998 10:0.69999999 11:5.1999998 12:3 13:3.8 14:2.2 15:0.89999998 16:7.0999999 17:7.8000002 18:7.3000002 19:11 20:-1.6 21:16.1 22:7.4000001 23:6 24:19 25:7.4000001 26:4 27:12.1 28:30 29:36 30:1 31:0.08372093 32:4 33:5 34:5 #
0.018184146310544171964984627720696 1:3 2:3000 3:22.799999 4:0.079999998 5:0.1 6:0.079999998 7:0 8:0 9:0 10:0 11:0 12:2.3 13:2.3 14:3.2 15:0.69999999 16:6.1999998 17:5.9000001 18:6.5999999 19:6 20:3.5999999 21:9.6000004 22:6 23:27 24:25 25:0 26:0 27:0 28:7 29:16 30:4 31:0.049844235 32:9 33:6 34:1 #
0.018184146310544171964984627720696 1:3 2:4700 3:28.799999 4:0.13 5:-0.16 6:0.090000004 7:0 8:0 9:0 10:0 11:0 12:6.3000002 13:7 14:7.4000001 15:0.89999998 16:8.5 17:13.3 18:12.5 19:12 20:6.5999999 21:18.4 22:13.9 23:28 24:27 25:16.9 26:14.8 27:8.3000002 28:65 29:95 30:3 31:0.18664047 32:1 33:1 34:4 #
0.018184146310544171964984627720696 1:0 2:3000 3:17.799999 4:-0.19 5:0.13 6:-0.34 7:0 8:0 9:0 10:0 11:0 12:1 13:0.80000001 14:3.8 15:0.40000001 16:3.5 17:2.8 18:1.7 19:6 20:-2.7 21:6 22:7.9000001 23:3 24:1 25:0 26:0 27:0 28:2 29:4 30:1 31:0.0088300221 32:12 33:12 34:5 #
0.018184146310544171964984627720696 1:1 2:4700 3:28.5 4:0.039999999 5:-0.2 6:0.059999999 7:0 8:0.1 9:0 10:0 11:2 12:3 13:3.3 14:3.5 15:0.2 16:13 17:7.5 18:8 19:6 20:0.2 21:15.9 22:6.3000002 23:18 24:19 25:0 26:0 27:0 28:19 29:35 30:2 31:0.10174418 32:5 33:5 34:5 #
-0.20839557003546360647305846214294 1:26 2:4700 3:23.5 4:0.25999999 5:0.31999999 6:0.34999999 7:0 8:0 9:0 10:0 11:0 12:7.6999998 13:7 14:6.5 15:2 16:8.6000004 17:12.3 18:11.5 19:10 20:8.5 21:14.5 22:11.2 23:31 24:31 25:9 26:12.9 27:15.1 28:16 29:27 30:1 31:0.18367347 32:2 33:2 34:2 #
0.018184146310544171964984627720696 1:1 2:3000 3:16.299999 4:-0.19 5:-0.050000001 6:-0.15000001 7:0 8:0 9:0 10:0 11:0 12:6.6999998 13:5 14:4.5 15:0.5 16:7.3000002 17:11 18:7.1999998 19:8 20:1.2 21:13.1 22:6.5 23:1 24:5 25:19.6 26:0 27:4.3000002 28:26 29:41 30:0 31:0.164 32:2 33:2 34:6 #
0.018184146310544171964984627720696 1:5 2:4700 3:18.799999 4:0.07 5:-0.15000001 6:0.059999999 7:0 8:0 9:0 10:0 11:0 12:4.6999998 13:6.8000002 14:4.8000002 15:0.40000001 16:7.4000001 17:5.3000002 18:11 19:8 20:1.3 21:20.700001 22:9.3999996 23:28 24:30 25:10 26:2.7 27:0 28:30 29:61 30:2 31:0.1517413 32:4 33:2 34:3 #
0.018184146310544171964984627720696 1:0 2:3000 3:28.5 4:0.19 5:0.12 6:0.0099999998 7:0.69999999 8:0.60000002 9:0 10:0 11:-2 12:4.3000002 13:3.2 14:1.9 15:0.60000002 16:5.4000001 17:7.5 18:6.5999999 19:3 20:2.5 21:10.8 22:3.5 23:32 24:24 25:4 26:0 27:13.2 28:13 29:16 30:2 31:0.084656082 32:5 33:6 34:1 #
-0.30912918298769653802082757465541 1:2 2:3700 3:25.799999 4:0.12 5:-0.25 6:0.07 7:0.30000001 8:0.30000001 9:0 10:0 11:8 12:5 13:3.9000001 14:4.6999998 15:0.5 16:7.5999999 17:5.6999998 18:5.3000002 19:8 20:1.2 21:9.3000002 22:9.8999996 23:25 24:26 25:0.89999998 26:5.9000001 27:10.2 28:26 29:48 30:0 31:0.13714285 32:4 33:4 34:5 #
0.018184146310544171964984627720696 1:1 2:3000 3:25.799999 4:-0.059999999 5:0.07 6:-0.059999999 7:0 8:0 9:0 10:0 11:0 12:3.3 13:4.9000001 14:3.8 15:1.2 16:5.8000002 17:7.3000002 18:8.3999996 19:6 20:4.0999999 21:12.7 22:6.6999998 23:11 24:11 25:14.1 26:1.6 27:0 28:30 29:58 30:4 31:0.13063063 32:3 33:3 34:2 #
0.018184146310544171964984627720696 1:3 2:4700 3:24.5 4:0.14 5:-0.19 6:0.2 7:0 8:0.1 9:0 10:0 11:-1 12:4.6999998 13:6.5999999 14:6.5999999 15:0.69999999 16:6.5999999 17:5.3000002 18:9.1000004 19:11 20:3.5999999 21:14.6 22:12.2 23:23 24:32 25:2.5999999 26:0 27:0 28:31 29:58 30:2 31:0.12719299 32:4 33:4 34:3 #
0.018184146310544171964984627720696 1:0 2:3000 3:19.299999 4:-0.23 5:-0.22 6:-0.38999999 7:0 8:0 9:0 10:0 11:0 12:1.7 13:1.8 14:1.9 15:0.80000001 16:4.9000001 17:6.0999999 18:4.8000002 19:3 20:-0.30000001 21:10 22:3.5 23:2 24:3 25:0 26:0 27:10.6 28:4 29:7 30:2 31:0.041176472 32:9 33:8 34:2 #
-0.18183554252579792187560769889387 1:0 2:4000 3:27.299999 4:-0.050000001 5:0.029999999 6:0.14 7:1.3 8:0.5 9:0 10:0.1 11:19 12:6 13:4.1999998 14:4.5999999 15:0.5 16:7.8000002 17:11.8 18:7.0999999 19:8 20:0.5 21:13.7 22:8.8999996 23:14 24:25 25:9.6000004 26:24.799999 27:0.89999998 28:36 29:62 30:0 31:0.14726841 32:4 33:4 34:5 #
0.018184146310544171964984627720696 1:22 2:4600 3:20 4:0.20999999 5:-0.23 6:0.02 7:0 8:0 9:0 10:0 11:0 12:8 13:8 14:8.6000004 15:1 16:7.5999999 17:11.6 18:13.3 19:14 20:8.8000002 21:17.9 22:12.7 23:17 24:7 25:12 26:7.6999998 27:15.2 28:23 29:33 30:1 31:0.21568628 32:1 33:2 34:2 #
0.018184146310544171964984627720696 1:1 2:3000 3:18.799999 4:0.07 5:-0.15000001 6:0.059999999 7:0.69999999 8:0.30000001 9:0.30000001 10:0.2 11:0 12:4 13:2.9000001 14:3.3 15:1 16:3.8 17:6 18:3.4000001 19:6 20:-0.60000002 21:7.5 22:5.1999998 23:28 24:30 25:2.3 26:13.6 27:2 28:16 29:26 30:1 31:0.06467662 32:6 33:6 34:4 #
0.018184146310544171964984627720696 1:34 2:4600 3:22.5 4:0.13 5:-0.07 6:0.050000001 7:1 8:1 9:0.40000001 10:0.2 11:6.1999998 12:9.3000002 13:5.0999999 14:8.6999998 15:0.89999998 16:7.5999999 17:20.9 18:12.4 19:15 20:3.3 21:21.5 22:15.9 23:30 24:21 25:32.5 26:10.1 27:20.1 28:46 29:57 30:5 31:0.14039409 32:2 33:2 34:1 #
0.018184146310544171964984627720696 1:0 2:3000 3:21.5 4:-0.17 5:0.050000001 6:-0.1 7:0 8:0 9:0 10:0 11:0 12:2 13:2 14:3.8 15:0.5 16:7 17:3.4000001 18:3.4000001 19:6 20:3.0999999 21:3.7 22:5.1999998 23:10 24:5 25:3.5999999 26:0 27:0 28:4 29:4 30:0 31:0.0086206896 32:10 33:12 34:8 #
0.018184146310544171964984627720696 1:2 2:4600 3:23.299999 4:-0.1 5:-0.0099999998 6:-0.07 7:0 8:0 9:0 10:0 11:0 12:7 13:6.3000002 14:5.6999998 15:1.1 16:7.3000002 17:13.1 18:10.8 19:10 20:3.2 21:18.4 22:11.5 23:7 24:14 25:12.4 26:23.4 27:3.5999999 28:39 29:61 30:3 31:0.190625 32:2 33:2 34:2 #
0.018184146310544171964984627720696 1:0 2:3000 3:24.299999 4:0.1 5:0.30000001 6:0.15000001 7:0.30000001 8:0.30000001 9:0.30000001 10:0 11:2 12:4.6999998 13:4 14:4.3000002 15:0 16:7.0999999 17:5 18:4.9000001 19:7 20:4.4000001 21:5.4000001 22:7.0999999 23:26 24:28 25:5.4000001 26:4.4000001 27:5.1999998 28:8 29:16 30:0 31:0.098765433 32:5 33:4 34:3 #
-0.036367008729351432694265611189621 1:18 2:4300 3:25.5 4:0.07 5:0.029999999 6:0.18000001 7:0.30000001 8:0.2 9:0 10:0 11:-9 12:3.3 13:5.8000002 14:5.8000002 15:1.5 16:8.1000004 17:10 18:12.6 19:10 20:7.8000002 21:17.299999 22:12 23:29 24:28 25:13.3 26:12.5 27:4.0999999 28:24 29:34 30:3 31:0.14655173 32:3 33:4 34:1 #
0.018184146310544171964984627720696 1:4 2:4600 3:19.299999 4:-0.1 5:-0.28999999 6:0.059999999 7:0 8:0.1 9:0 10:0 11:-2 12:4.3000002 13:5.5 14:7.4000001 15:0.89999998 16:7.5999999 17:3.5999999 18:9.8999996 19:13 20:2.0999999 21:17.6 22:11.5 23:5 24:29 25:7.1999998 26:1.9 27:0 28:33 29:57 30:4 31:0.15531336 32:3 33:2 34:1 #
0.018184146310544171964984627720696 1:0 2:3000 3:23.799999 4:0.090000004 5:0.039999999 6:0.16 7:0 8:0 9:0 10:0 11:0 12:4.3000002 13:4 14:4.0999999 15:0.2 16:5.5 17:5.5 18:4.5 19:7 20:1.1 21:7.9000001 22:7.1999998 23:28 24:23 25:3 26:4.5999999 27:8.8999996 28:14 29:24 30:0 31:0.090225562 32:6 33:6 34:5 #
0.018184146310544171964984627720696 1:4 2:4600 3:28 4:-0.1 5:0.11 6:0.050000001 7:0.30000001 8:0.2 9:0 10:0 11:2 12:3.3 13:4 14:4 15:0.2 16:11.8 17:6.5999999 18:9 19:6 20:0.80000001 21:17.200001 22:7.5 23:14 24:21 25:18.6 26:0 27:1.3 28:12 29:21 30:1 31:0.125 32:4 33:4 34:3 #
0.018184146310544171964984627720696 1:2 2:3000 3:23.5 4:-0.039999999 5:0.050000001 6:-0.17 7:0 8:0 9:0 10:0 11:0 12:6 13:5.3000002 14:4.5999999 15:1.1 16:4.8000002 17:6.0999999 18:7.8000002 19:8 20:5.1999998 21:10.4 22:8.1999998 23:20 24:16 25:8.1999998 26:5.9000001 27:4.1999998 28:19 29:37 30:2 31:0.13602941 32:3 33:3 34:2 #
0.018184146310544171964984627720696 1:1 2:4600 3:23.299999 4:0.02 5:-0.090000004 6:-0.02 7:0.30000001 8:0.1 9:0 10:0 11:22 12:4 13:6.5 14:7.1999998 15:0.60000002 16:6.4000001 17:7.0999999 18:11.2 19:12 20:5.0999999 21:17.299999 22:12.4 23:18 24:8 25:6.9000001 26:12.1 27:2.2 28:54 29:86 30:6 31:0.1733871 32:2 33:2 34:2 #
0.018184146310544171964984627720696 1:0 2:3000 3:20 4:0.0099999998 5:-0.0099999998 6:0.02 7:0 8:0 9:0 10:0 11:0 12:0.5 13:0.5 14:1.6 15:0 16:15 17:1.3 18:1.3 19:3 20:-0.5 21:3 22:2.5 23:23 24:14 25:0 26:0 27:2.5 28:1 29:1 30:0 31:0.0028011205 32:12 33:13 34:5 #
0.018184146310544171964984627720696 1:6 2:4600 3:21.799999 4:0.1 5:-0.23 6:0.090000004 7:0.30000001 8:0.1 9:0 10:0 11:22 12:6.3000002 13:6.6999998 14:8.1000004 15:0.69999999 16:6.1999998 17:10.1 18:11.6 19:14 20:5.4000001 21:17.799999 22:13.8 23:18 24:18 25:12.1 26:2.2 27:16 28:51 29:81 30:6 31:0.17344753 32:2 33:2 34:2 #
0.018184146310544171964984627720696 1:0 2:3000 3:22.5 4:-0.050000001 5:0.039999999 6:-0.0099999998 7:0 8:0 9:0 10:0 11:0 12:2.3 13:2.9000001 14:0.30000001 15:0.30000001 16:6.4000001 17:5.5999999 18:0 19:1 20:-0.69999999 21:9.6000004 22:0 23:31 24:22 25:0 26:0 27:0 28:0 29:0 30:0 31:0 32:9 33:10 34:3 #
0.018184146310544171964984627720696 1:12 2:4500 3:21 4:0.0099999998 5:-0.15000001 6:-0.039999999 7:0 8:0 9:0.2 10:0 11:0 12:6.5 13:6.5 14:5.5999999 15:1 16:13.3 17:19.6 18:19.6 19:10 20:4.4000001 21:34.900002 22:10.4 23:10 24:14 25:0 26:0 27:0 28:7 29:12 30:2 31:0.039999999 32:7 33:7 34:3 #
-0.12727478512847895109061369112169 1:13 2:4300 3:26.799999 4:0.079999998 5:0.0099999998 6:-0.029999999 7:0 8:0.2 9:0.30000001 10:0 11:7.3000002 12:6 13:6.6999998 14:5.9000001 15:1 16:9.3999996 17:5.6999998 18:5.6999998 19:10 20:5.1999998 21:20.799999 22:13.2 23:12 24:11 25:13 26:2.4000001 27:1.8 28:8 29:18 30:0 31:0.14516129 32:4 33:3 34:4 #
0.018184146310544171964984627720696 1:2 2:3000 3:22.799999 4:-0.23 5:0.090000004 6:-0.44 7:0 8:0 9:0 10:0 11:0 12:7.3000002 13:5.5 14:4.5 15:1.1 16:5.5999999 17:10 18:8.8000002 19:7 20:5.0999999 21:12.6 22:8.1000004 23:2 24:1 25:15.9 26:8.1999998 27:5.9000001 28:23 29:45 30:3 31:0.13353115 32:3 33:3 34:2 #
0.018184146310544171964984627720696 1:12 2:4500 3:26 4:0.22 5:-0.34 6:0.22 7:0 8:0 9:0.30000001 10:0 11:0 12:10.3 13:7.5999999 14:5.8000002 15:0.40000001 16:6.5 17:14.2 18:9.3000002 19:10 20:-1.8 21:20.5 22:14 23:25 24:32 25:2.0999999 26:27.4 27:13 28:19 29:38 30:0 31:0.19387755 32:2 33:2 34:4 #
0.018184146310544171964984627720696 1:0 2:3000 3:28.5 4:0.19 5:0.12 6:0.0099999998 7:0 8:0 9:0 10:0 11:0 12:4 13:4.3000002 14:3.5 15:0.5 16:5.3000002 17:5.5999999 18:5 19:6 20:1.5 21:8.5 22:6.1999998 23:32 24:24 25:3.5999999 26:0 27:10.2 28:11 29:17 30:0 31:0.08994709 32:6 33:5 34:4 #
0.018184146310544171964984627720696 1:0 2:4500 3:28.5 4:-0.029999999 5:-0.079999998 6:-0.059999999 7:0 8:0.1 9:0 10:0 11:2 12:2.3 13:3.4000001 14:3.9000001 15:0.30000001 16:14.5 17:9.1999998 18:9 19:6 20:1.3 21:16.799999 22:6.6999998 23:6 24:9 25:0 26:19.1 27:3.5 28:19 29:32 30:2 31:0.11851852 32:5 33:4 34:5 #
-0.25455814381966213044705682477797 1:2 2:4200 3:18.299999 4:0.050000001 5:-0.1 6:0.039999999 7:0 8:0.1 9:0 10:0.1 11:6 12:7 13:6 14:5.6999998 15:0.69999999 16:8.8999996 17:10.9 18:11.4 19:10 20:1.8 21:21 22:11.7 23:16 24:22 25:19.200001 26:9.6999998 27:3.9000001 28:47 29:74 30:3 31:0.1574468 32:2 33:1 34:2 #
0.018184146310544171964984627720696 1:0 2:3000 3:19.5 4:0.050000001 5:-0.15000001 6:-0.079999998 7:0 8:0 9:0 10:0 11:0 12:4 13:3.7 14:3.9000001 15:0.5 16:6.3000002 17:6.5 18:5.5 19:7 20:3.2 21:7.8000002 22:5.8000002 23:10 24:14 25:8.8000002 26:3.3 27:7.3000002 28:14 29:25 30:1 31:0.14204545 32:4 33:3 34:2 #
0.018184146310544171964984627720696 1:23 2:4500 3:26 4:0.07 5:0.1 6:0.059999999 7:1.3 8:1 9:0 10:0 11:6.3000002 12:8 13:4.5999999 14:6.5999999 15:0.80000001 16:7.9000001 17:15.9 18:10.4 19:11 20:3.5 21:17.4 22:12.3 23:28 24:30 25:20.1 26:6.1999998 27:21.5 28:32 29:40 30:4 31:0.12195122 32:2 33:4 34:1 #
0.018184146310544171964984627720696 1:2 2:3000 3:23 4:0.029999999 5:-0.02 6:-0.090000004 7:0 8:0 9:0 10:0 11:0 12:4 13:4.5 14:2.9000001 15:0.5 16:6.4000001 17:5 18:5.5999999 19:5 20:1.8 21:9.3000002 22:4.5999999 23:23 24:27 25:9.1999998 26:3.5999999 27:2.3 28:16 29:26 30:0 31:0.14689265 32:2 33:3 34:4 #
0.018184146310544171964984627720696 1:6 2:4500 3:23.5 4:0.039999999 5:0.079999998 6:-0.14 7:0 8:0 9:0 10:0 11:0 12:7 13:6.8000002 14:6.4000001 15:0.40000001 16:7.0999999 17:9.6000004 18:11.7 19:11 20:5.0999999 21:18.299999 22:11.6 23:24 24:6 25:14 26:0 27:8.1999998 28:36 29:55 30:3 31:0.17515923 32:2 33:2 34:2 #
-0.11793943497065351166952495987061 1:22 2:4500 3:24.299999 4:0.059999999 5:0.039999999 6:0.07 7:0 8:0 9:0 10:0 11:0 12:8.6999998 13:9.3000002 14:8.3000002 15:1.2 16:7.9000001 17:11 18:11 19:13 20:4 21:27.1 22:15.1 23:30 24:32 25:16.700001 26:9.3999996 27:6.9000001 28:16 29:25 30:0 31:0.23584905 32:2 33:1 34:2 #
0.018184146310544171964984627720696 1:0 2:3000 3:19.799999 4:0.13 5:-0.050000001 6:0.059999999 7:0 8:0 9:0 10:0 11:0 12:2 13:1.6 14:1.1 15:0 16:3.4000001 17:1.8 18:1.3 19:2 20:0.5 21:2.0999999 22:2 23:30 24:25 25:1.8 26:0 27:2 28:4 29:7 30:0 31:0.017156864 32:8 33:9 34:5 #
0.018184146310544171964984627720696 1:4 2:4500 3:29.299999 4:0.14 5:0.059999999 6:0.050000001 7:0 8:0 9:0 10:0 11:0 12:7 13:5.9000001 14:5.9000001 15:0.89999998 16:7.3000002 17:13.2 18:10.3 19:10 20:3.5 21:17.1 22:10.2 23:29 24:19 25:6 26:14.2 27:19.299999 28:27 29:41 30:2 31:0.099514566 32:4 33:4 34:4 #
0.018184146310544171964984627720696 1:1 2:3000 3:25.799999 4:-0.11 5:0.41999999 6:0.0099999998 7:0 8:0 9:0 10:0 11:0 12:5.3000002 13:5.3000002 14:4.4000001 15:0.5 16:6.8000002 17:4.4000001 18:8.8000002 19:7 20:-0.80000001 21:18.4 22:10.2 23:22 24:18 25:9.3000002 26:2.2 27:1.6 28:6 29:20 30:2 31:0.14285715 32:5 33:4 34:1 #
0.018184146310544171964984627720696 1:3 2:4500 3:21 4:0.25 5:-0.57999998 6:-0.059999999 7:0 8:0 9:0 10:0 11:0 12:6.6999998 13:6 14:5 15:1 16:10.2 17:10.7 18:11.4 19:8 20:9.6999998 21:13 22:8.3000002 23:23 24:30 25:10 26:10 27:12.1 28:16 29:25 30:1 31:0.15822785 32:3 33:3 34:2 #
0.018184146310544171964984627720696 1:2 2:3000 3:25.5 4:0.07 5:0.07 6:0.050000001 7:0 8:0 9:0 10:0 11:0 12:5.6999998 13:5.0999999 14:4.9000001 15:0.80000001 16:6.5999999 17:5 18:6.1999998 19:8 20:3.5999999 21:8.8000002 22:9.8999996 23:27 24:27 25:4.9000001 26:4.5999999 27:5.5999999 28:30 29:53 30:0 31:0.16719243 32:3 33:3 34:5 #
0.018184146310544171964984627720696 1:2 2:4500 3:21.799999 4:0.07 5:0.050000001 6:-0.0099999998 7:1.3 8:0.89999998 9:0 10:0.1 11:6.1999998 12:6.6999998 13:5.5 14:5.3000002 15:0.2 16:8.3000002 17:16.700001 18:9.8999996 19:9 20:2.9000001 21:16.9 22:9.3000002 23:25 24:13 25:4.5999999 26:19.6 27:25.799999 28:44 29:72 30:4 31:0.15686275 32:3 33:3 34:2 #
0.018184146310544171964984627720696 1:0 2:3000 3:24.299999 4:0.059999999 5:0.039999999 6:0.07 7:0 8:0 9:0 10:0 11:0 12:1.3 13:7.5 14:1.9 15:0.60000002 16:7.3000002 17:1.6 18:1.6 19:3 20:4.3000002 21:19.799999 22:3.2 23:30 24:32 25:1.5 26:0 27:3.4000001 28:3 29:5 30:0 31:0.047169812 32:8 33:8 34:2 #
0.018184146310544171964984627720696 1:5 2:4500 3:20.5 4:0.090000004 5:0.029999999 6:0.029999999 7:0 8:0 9:0 10:0 11:0 12:5.3000002 13:6.6999998 14:5 15:0.40000001 16:7.5999999 17:7.9000001 18:11 19:8 20:1.8 21:20.1 22:9.3000002 23:29 24:17 25:10.9 26:10 27:2.7 28:35 29:67 30:2 31:0.15261959 32:4 33:3 34:3 #
0.018184146310544171964984627720696 1:0 2:3000 3:20.5 4:0.029999999 5:-0.16 6:-0.02 7:0 8:0 9:0.2 10:0 11:0 12:4 13:4.5999999 14:4.3000002 15:0.60000002 16:7.0999999 17:4.4000001 18:6.0999999 19:8 20:2 21:10.1 22:7.1999998 23:9 24:7 25:6.3000002 26:2 27:4.8000002 28:15 29:23 30:0 31:0.12041885 32:5 33:5 34:4 #
0.018184146310544171964984627720696 1:2 2:4500 3:24.799999 4:0.11 5:0.090000004 6:0.050000001 7:0 8:0 9:0 10:0 11:0 12:5 13:6.6999998 14:6.5 15:0.69999999 16:8.6999998 17:10 18:12.2 19:11 20:5.0999999 21:19.299999 22:9.8000002 23:29 24:21 25:24.9 26:0 27:1.7 28:42 29:75 30:4 31:0.19685039 32:2 33:2 34:1 #
0.018184146310544171964984627720696 1:0 2:3000 3:24 4:0.22 5:0 6:0.079999998 7:0.30000001 8:0.30000001 9:0 10:0 11:0 12:2.7 13:2.3 14:1.1 15:0.30000001 16:5.4000001 17:3.3 18:2.5 19:2 20:-0.40000001 21:5.4000001 22:1.7 23:32 24:26 25:4.5 26:0 27:5.4000001 28:6 29:10 30:0 31:0.07751938 32:5 33:4 34:4 #
0.018184146310544171964984627720696 1:24 2:4400 3:29 4:0.17 5:0.23 6:0.15000001 7:0 8:0 9:0 10:0 11:0 12:6.6999998 13:5.1999998 14:6.0999999 15:1.2 16:11.2 17:12.4 18:12.4 19:10 20:4.0999999 21:17.5 22:12.7 23:29 24:24 25:12.9 26:15.1 27:9.1000004 28:11 29:20 30:1 31:0.1923077 32:2 33:2 34:2 #
0.018184146310544171964984627720696 1:1 2:3000 3:22.5 4:0.16 5:-0.18000001 6:0.18000001 7:0 8:0.30000001 9:0 10:0 11:5.1999998 12:4.6999998 13:4.0999999 14:3.3 15:0.40000001 16:7.0999999 17:3.9000001 18:3.0999999 19:6 20:1.3 21:11.3 22:5.9000001 23:18 24:5 25:0 26:3.0999999 27:3.0999999 28:5 29:8 30:0 31:0.068965517 32:7 33:6 34:4 #
0.018184146310544171964984627720696 1:3 2:4400 3:19.5 4:-0.16 5:-0.27000001 6:-0.23 7:0 8:0 9:0 10:0 11:0 12:8.3000002 13:5.0999999 14:7.9000001 15:0.40000001 16:7 17:13.8 18:13.8 19:13 20:1.6 21:12 22:9.8000002 23:2 24:1 25:7.6999998 26:15.2 27:18.4 28:17 29:24 30:1 31:0.21238938 32:1 33:2 34:2 #
0.018184146310544171964984627720696 1:0 2:3000 3:25.299999 4:0.16 5:-0.15000001 6:0.27000001 7:0 8:0 9:0 10:0 11:0 12:6 13:4.5 14:5 15:0.89999998 16:5.4000001 17:6.4000001 18:5.4000001 19:8 20:2 21:8.8999996 22:8.1999998 23:30 24:31 25:0 26:10.5 27:8.8000002 28:20 29:39 30:1 31:0.14606741 32:5 33:3 34:2 #
0.018184146310544171964984627720696 1:17 2:4400 3:20.799999 4:0.17 5:-0.25999999 6:0.07 7:0 8:0 9:0 10:0 11:0 12:7.3000002 13:6.9000001 14:6.5999999 15:0.40000001 16:11.1 17:18.5 18:14.4 19:11 20:4.5 21:24.200001 22:12.1 23:27 24:31 25:0 26:7.3000002 27:35.599998 28:34 29:52 30:2 31:0.2184874 32:2 33:2 34:2 #
0.018184146310544171964984627720696 1:1 2:3000 3:21.5 4:0.1 5:-0.18000001 6:0.029999999 7:0.30000001 8:0.30000001 9:0.2 10:0.1 11:-0.5 12:4 13:2.9000001 14:4 15:1.1 16:3.8 17:6.8000002 18:3.5999999 19:7 20:-0.69999999 21:7.9000001 22:5.9000001 23:24 24:17 25:13.6 26:2 27:0 28:14 29:23 30:1 31:0.062841527 32:6 33:7 34:4 #
0.018184146310544171964984627720696 1:2 2:4400 3:21 4:-0.18000001 5:-0.28999999 6:-0.27000001 7:0 8:0 9:0 10:0 11:0 12:4.3000002 13:6.1999998 14:4 15:1.6 16:7.5 17:11.5 18:12.4 19:8 20:7.1999998 21:17.700001 22:8 23:1 24:4 25:12.5 26:4.0999999 27:17.799999 28:21 29:30 30:2 31:0.15384616 32:3 33:4 34:1 #
0.018184146310544171964984627720696 1:2 2:3000 3:25.799999 4:0.12 5:-0.25 6:0.07 7:0 8:0 9:0 10:0 11:0 12:6 13:5.0999999 14:5 15:0.69999999 16:6.3000002 17:4.0999999 18:5.9000001 19:9 20:3.2 21:8.5 22:10 23:25 24:26 25:2.8 26:4.9000001 27:4.5999999 28:32 29:59 30:0 31:0.16857143 32:3 33:3 34:5 #
0.018184146310544171964984627720696 1:0 2:4400 3:23 4:-0.02 5:0.38 6:0.029999999 7:0 8:0 9:0.30000001 10:0 11:0 12:10 13:8.5 14:6.5999999 15:0.5 16:6.9000001 17:14.3 18:11.1 19:10 20:-0.80000001 21:23.1 22:13.9 23:22 24:18 25:27.4 26:13 27:2.4000001 28:18 29:33 30:0 31:0.19760479 32:2 33:2 34:4 #
0.018184146310544171964984627720696 1:0 2:3000 3:23.5 4:0.18000001 5:0.0099999998 6:-0.0099999998 7:0 8:0.1 9:0 10:0 11:0 12:3 13:3.0999999 14:2.9000001 15:0.2 16:6.5999999 17:5.8000002 18:4.5 19:5 20:0.1 21:8.8999996 22:5.4000001 23:27 24:12 25:13.6 26:1.9 27:1.8 28:17 29:27 30:1 31:0.086538464 32:3 33:3 34:4 #
0.018184146310544171964984627720696 1:7 2:4400 3:28.5 4:0.13 5:-0.20999999 6:0.059999999 7:0 8:0 9:0 10:0 11:0 12:6.3000002 13:6 14:5.4000001 15:1.2 16:6.6999998 17:8.6999998 18:9.6999998 19:9 20:2.8 21:16.6 22:11.2 23:22 24:16 25:15.7 26:6.3000002 27:4.1999998 28:21 29:37 30:2 31:0.17535545 32:2 33:2 34:2 #
0.018184146310544171964984627720696 1:0 2:3000 3:18.299999 4:0.07 5:-0.059999999 6:0.050000001 7:0 8:0 9:0 10:0 11:0 12:3 13:4 14:2.9000001 15:0.40000001 16:6.0999999 17:2.5999999 18:4.8000002 19:5 20:1.1 21:8.6000004 22:4.9000001 23:10 24:13 25:3.5999999 26:2.3 27:1.8 28:12 29:19 30:0 31:0.12751678 32:3 33:4 34:4 #
0.018184146310544171964984627720696 1:3 2:4400 3:28.799999 4:-0.07 5:0.050000001 6:0.07 7:0 8:0.1 9:0 10:0 11:2 12:4 13:3.5 14:5.3000002 15:0.2 16:13.2 17:10 18:8.3000002 19:8 20:0.89999998 21:15.8 22:9.6000004 23:10 24:18 25:11 26:0 27:0 28:23 29:40 30:2 31:0.10126583 32:5 33:5 34:6 #
0.018184146310544171964984627720696 1:0 2:3000 3:21.299999 4:0.059999999 5:0.14 6:0.2 7:0 8:0 9:0 10:0 11:0 12:4 13:4.9000001 14:4.0999999 15:1.1 16:5.5999999 17:7.1999998 18:8.1999998 19:6 20:4 21:12.3 22:7.1999998 23:18 24:32 25:5.8000002 26:14.1 27:1.6 28:32 29:63 30:4 31:0.13097712 32:3 33:3 34:2 #
0.018184146310544171964984627720696 1:25 2:4300 3:20.299999 4:0.13 5:0.2 6:0.18000001 7:1.3 8:1 9:1.4 10:0.2 11:4 12:10.3 13:7.8000002 14:8.5 15:1 16:7.3000002 17:17 18:17 19:17 20:-2.5 21:24.9 22:13.9 23:28 24:29 25:34.900002 26:6.1999998 27:9.8000002 28:15 29:32 30:0 31:0.31683168 32:1 33:1 34:2 #
0.018184146310544171964984627720696 1:0 2:3000 3:23.799999 4:0.090000004 5:0.039999999 6:0.16 7:0 8:0.2 9:0.2 10:0.2 11:-2 12:1.7 13:2.2 14:2.2 15:1.2 16:3.0999999 17:1.8 18:1.6 19:4 20:0.40000001 21:2.9000001 22:3.5999999 23:28 24:23 25:0 26:3.3 27:2.2 28:5 29:10 30:0 31:0.037593983 32:7 33:7 34:5 #
0.018184146310544171964984627720696 1:0 2:4300 3:19.299999 4:-0.23 5:-0.22 6:-0.38999999 7:0 8:0 9:0 10:0 11:0 12:4.3000002 13:5.1999998 14:4.4000001 15:1.2 16:7.5 17:5.5 18:8.5 19:8 20:1.5 21:15.5 22:9.1000004 23:2 24:3 25:6.3000002 26:4.1999998 27:6.0999999 28:16 29:27 30:1 31:0.15882353 32:4 33:2 34:4 #
0.018184146310544171964984627720696 1:1 2:3000 3:21.799999 4:0.11 5:0.16 6:0.20999999 7:0 8:0.1 9:0 10:0 11:0 12:4 13:3 14:1.5 15:0.30000001 16:5.4000001 17:4.1999998 18:3.4000001 19:3 20:0.30000001 21:6.4000001 22:3 23:26 24:26 25:1.9 26:1.8 27:8.8999996 28:15 29:24 30:0 31:0.087591238 32:4 33:4 34:5 #
0.018184146310544171964984627720696 1:2 2:4300 3:21.799999 4:-0.1 5:-0.039999999 6:0.050000001 7:0.30000001 8:0.30000001 9:0 10:0 11:7 12:5.6999998 13:7.3000002 14:6.6999998 15:0.5 16:9.6000004 17:12.4 18:12.9 19:11 20:10.9 21:14.9 22:10.5 23:13 24:21 25:10.3 26:14.3 27:12.5 28:23 29:31 30:0 31:0.22794117 32:1 33:1 34:4 #
0.018184146310544171964984627720696 1:0 2:3000 3:26.799999 4:0.12 5:0.1 6:-0.050000001 7:0 8:0 9:0 10:0 11:0 12:3.3 13:3.5999999 14:3.5 15:0.40000001 16:5.1999998 17:5.0999999 18:4.3000002 19:6 20:0.89999998 21:7.6999998 22:6.3000002 23:25 24:5 25:1.4 26:3.5999999 27:0 28:12 29:18 30:0 31:0.084905662 32:6 33:5 34:5 #
0.018184146310544171964984627720696 1:9 2:4300 3:26.799999 4:0.090000004 5:0.34 6:0.15000001 7:0 8:0 9:0 10:0 11:0 12:6.6999998 13:5.8000002 14:4.9000001 15:0.69999999 16:8 17:13.7 18:11 19:8 20:3.9000001 21:18.1 22:9 23:32 24:31 25:14.2 26:19.299999 27:0 28:23 29:35 30:2 31:0.093833782 32:4 33:5 34:4 #
0.018184146310544171964984627720696 1:7 2:4300 3:26.299999 4:-0.20999999 5:-0.090000004 6:-0.090000004 7:0 8:0 9:0 10:0 11:0 12:6.3000002 13:5.9000001 14:6.0999999 15:1 16:7.3000002 17:13.1 18:10.1 19:10 20:2.5999999 21:17.6 22:11.7 23:1 24:5 25:0 26:3.4000001 27:12.4 28:41 29:63 30:3 31:0.17897727 32:2 33:2 34:2 #
0.018184146310544171964984627720696 1:0 2:3000 3:23 4:0.029999999 5:0.31999999 6:0.039999999 7:0 8:0 9:0 10:0 11:0 12:1.5 13:1.5 14:0.5 15:0 16:19.299999 17:3.9000001 18:3.9000001 19:1 20:-1.6 21:9.3999996 22:0 23:31 24:31 25:7.8000002 26:0 27:0 28:2 29:3 30:0 31:0.0067114094 32:12 33:12 34:6 #
0.018184146310544171964984627720696 1:10 2:4300 3:24.799999 4:-0.11 5:-0.23999999 6:0.029999999 7:0 8:0.30000001 9:0 10:0 11:2.5 12:5.3000002 13:5.0999999 14:4.4000001 15:0.60000002 16:11.8 17:12.1 18:11.1 19:7 20:-0.5 21:22.799999 22:8.8999996 23:7 24:26 25:0 26:1.4 27:0 28:20 29:34 30:2 31:0.12318841 32:4 33:3 34:4 #
0.018184146310544171964984627720696 1:0 2:3000 3:17.5 4:-0.16 5:-0.029999999 6:-0.23 7:0 8:0 9:0 10:0 11:0 12:2.3 13:1.7 14:3.8 15:0.30000001 16:4.5 17:1.7 18:2.4000001 19:6 20:-1.9 21:6.6999998 22:7.9000001 23:2 24:2 25:6.0999999 26:0 27:0 28:5 29:10 30:1 31:0.02020202 32:10 33:10 34:5 #
0.018184146310544171964984627720696 1:0 2:3000 3:23.299999 4:0.12 5:-0.16 6:0.059999999 7:0 8:0 9:0 10:0 11:0 12:3.3 13:2.8 14:0.89999998 15:0.2 16:3.9000001 17:5.4000001 18:3.7 19:2 20:-0.69999999 21:8.1000004 22:1.9 23:24 24:14 25:1.7 26:11.2 27:3.3 28:7 29:14 30:1 31:0.05882353 32:7 33:5 34:4 #
0.018184146310544171964984627720696 1:3 2:4300 3:22.299999 4:0.12 5:-0.20999999 6:0.1 7:0 8:0 9:0 10:0 11:0 12:5 13:5.6999998 14:6 15:0.40000001 16:7.5999999 17:5.1999998 18:9.1999998 19:10 20:2.5 21:15.8 22:11.3 23:22 24:17 25:2.8 26:0 27:5 28:25 29:39 30:1 31:0.16182573 32:2 33:2 34:3 #
0.018184146310544171964984627720696 1:0 2:3000 3:23.299999 4:0.12 5:-0.16 6:0.059999999 7:0 8:0.1 9:0 10:0 11:0 12:4 13:3 14:1.5 15:0.30000001 16:5.6999998 17:5 18:3.5999999 19:3 20:0.40000001 21:6.8000002 22:2.9000001 23:24 24:14 25:1.8 26:8.8999996 27:4.4000001 28:14 29:22 30:0 31:0.092436977 32:4 33:4 34:5 #
0.018184146310544171964984627720696 1:12 2:4200 3:21.799999 4:0.079999998 5:0.039999999 6:-0.07 7:0 8:0 9:0.2 10:0 11:0 12:5.3000002 13:5.5 14:6.5999999 15:1 16:11 17:15.8 18:15.8 19:11 20:6.8000002 21:24.799999 22:12.5 23:23 24:6 25:27.1 26:5.0999999 27:15.2 28:18 29:22 30:2 31:0.15492958 32:2 33:3 34:2 #
0.018184146310544171964984627720696 1:0 2:3000 3:25 4:0.02 5:0.079999998 6:-0.0099999998 7:0 8:0 9:0 10:0 11:0 12:1.3 13:2.5999999 14:5 15:0.69999999 16:8.6999998 17:6 18:6.0999999 19:8 20:2.3 21:9.8999996 22:9 23:20 24:20 25:0 26:7.3000002 27:7.9000001 28:20 29:25 30:3 31:0.049800798 32:7 33:7 34:5 #
0.018184146310544171964984627720696 1:5 2:4200 3:23 4:-0.19 5:-0.07 6:-0.039999999 7:0 8:0 9:0 10:0 11:0 12:7 13:6.9000001 14:7 15:1 16:8.3999996 17:16.299999 18:11.9 19:11 20:5.5999999 21:18.1 22:12.9 23:1 24:8 25:8.3000002 26:26.6 27:14.1 28:53 29:80 30:2 31:0.17699115 32:3 33:2 34:4 #
0.018184146310544171964984627720696 1:0 2:3000 3:23 4:-0.02 5:0.38 6:0.029999999 7:0 8:0 9:0.30000001 10:0 11:0 12:1.5 13:1.5 14:1 15:0 16:11.7 17:2.8 18:2.8 19:2 20:1.8 21:3.7 22:2 23:22 24:18 25:3.4000001 26:0 27:0 28:2 29:3 30:0 31:0.017964073 32:9 33:9 34:4 #
0.018184146310544171964984627720696 1:12 2:4200 3:22.799999 4:0.02 5:-0.30000001 6:-0.02 7:0 8:0 9:0 10:0 11:0 12:7 13:5.3000002 14:5.0999999 15:0.69999999 16:8.8000002 17:15.3 18:11.7 19:9 20:5.6999998 21:17.6 22:11.2 23:13 24:24 25:24.299999 26:13.8 27:7.6999998 28:33 29:47 30:5 31:0.15562914 32:3 33:3 34:1 #
0.018184146310544171964984627720696 1:0 2:3000 3:17.299999 4:0.059999999 5:-0.14 6:-0.02 7:0 8:0.2 9:0 10:0 11:7 12:2.3 13:1.3 14:4.8000002 15:0 16:6.3000002 17:2.2 18:1.6 19:8 20:-0.40000001 21:3.5999999 22:6.9000001 23:9 24:12 25:0 26:0 27:1.4 28:4 29:8 30:0 31:0.024615385 32:8 33:8 34:6 #
0.018184146310544171964984627720696 1:18 2:4200 3:30.299999 4:-0.079999998 5:0.79000002 6:-0.0099999998 7:1 8:0.5 9:0.30000001 10:0.2 11:9 12:7 13:4.1999998 14:6.3000002 15:0.5 16:8.6000004 17:15.2 18:8.5 19:10 20:-1.8 21:18.799999 22:12.6 23:31 24:27 25:0 26:27.9 27:11.8 28:16 29:27 30:2 31:0.080838323 32:5 33:5 34:3 #
0.018184146310544171964984627720696 1:4 2:3000 3:24.299999 4:-0.059999999 5:0.07 6:0.12 7:0 8:0 9:0 10:0 11:0 12:1.7 13:2 14:5.0999999 15:0.30000001 16:6.5999999 17:3.7 18:3.8 19:8 20:-1.1 21:8.6000004 22:10 23:13 24:21 25:9.8000002 26:0 27:0 28:11 29:19 30:2 31:0.045023698 32:9 33:9 34:5 #
0.018184146310544171964984627720696 1:5 2:4200 3:20.299999 4:0.050000001 5:-0.13 6:-0.039999999 7:0 8:0 9:0.2 10:0 11:0 12:8 13:7.4000001 14:7.3000002 15:0.60000002 16:7.3000002 17:6.5999999 18:11.8 19:13 20:1.3 21:22.299999 22:12.6 23:9 24:11 25:7.9000001 26:4.6999998 27:7.0999999 28:17 29:37 30:2 31:0.092500001 32:6 33:5 34:3 #
0.018184146310544171964984627720696 1:1 2:3000 3:19.299999 4:-0.0099999998 5:-0.12 6:-0.07 7:0 8:0 9:0 10:0 11:0 12:3.3 13:3.3 14:3.3 15:0.2 16:7.0999999 17:6.1999998 18:4.3000002 19:5 20:1 21:7.5999999 22:5.1999998 23:8 24:7 25:7.0999999 26:5 27:6.5 28:26 29:43 30:0 31:0.086172342 32:5 33:5 34:8 #
0.018184146310544171964984627720696 1:6 2:4200 3:20.799999 4:0.17 5:-0.25999999 6:0.07 7:2.3 8:1.9 9:2 10:0.40000001 11:4.8000002 12:9.6999998 13:9.1000004 14:7.5 15:1 16:4.6999998 17:14.6 18:12 19:16 20:4 21:20 22:14.4 23:27 24:31 25:0 26:22.700001 27:5.5999999 28:36 29:63 30:2 31:0.2647059 32:1 33:1 34:2 #
0.018184146310544171964984627720696 1:0 2:3000 3:26.799999 4:0.090000004 5:0.34 6:0.15000001 7:0 8:0 9:0 10:0 11:0 12:2.7 13:2.5 14:2.5999999 15:0 16:11.1 17:3.8 18:5.8000002 19:4 20:1 21:10.6 22:5 23:32 24:31 25:4.9000001 26:0 27:0 28:6 29:13 30:1 31:0.034852546 32:8 33:9 34:6 #
0.018184146310544171964984627720696 1:2 2:4200 3:19.299999 4:0.12 5:-0.039999999 6:0.029999999 7:1.7 8:1.8 9:2 10:0.30000001 11:4.5 12:3.7 13:7.5 14:6.5 15:0.80000001 16:4.6999998 17:3.9000001 18:9.6000004 19:15 20:1.9 21:17.200001 22:11.6 23:26 24:15 25:3.9000001 26:4.9000001 27:2.8 28:40 29:74 30:2 31:0.21387284 32:2 33:2 34:3 #
0.018184146310544171964984627720696 1:0 2:3000 3:18.5 4:-0.050000001 5:-0.17 6:-0.13 7:0 8:0 9:0 10:0 11:0 12:3.7 13:3 14:2.8 15:0.5 16:5.5 17:5.4000001 18:5.9000001 19:5 20:2.3 21:9.5 22:5.5 23:4 24:8 25:0 26:0 27:0 28:5 29:14 30:2 31:0.058091287 32:9 33:6 34:2 #
0.018184146310544171964984627720696 1:3 2:4200 3:25.799999 4:-0.11 5:0.41999999 6:0.0099999998 7:0 8:0 9:0 10:0 11:0 12:8 13:6.1999998 14:5.8000002 15:0.40000001 16:6.3000002 17:10.5 18:7.9000001 19:10 20:2.4000001 21:13.5 22:10 23:22 24:18 25:4.5999999 26:15.9 27:11.1 28:20 29:32 30:0 31:0.22857143 32:1 33:1 34:6 #
-0.20001822940263008776540232247498 1:9 2:4100 3:28.799999 4:0.02 5:0.16 6:0.029999999 7:0 8:0 9:0 10:0 11:0 12:3.7 13:3.8 14:3.9000001 15:0.30000001 16:8.1000004 17:3.7 18:6.5999999 19:6 20:-0.60000002 21:13.7 22:7.5 23:27 24:20 25:0 26:1.3 27:9.8999996 28:8 29:16 30:1 31:0.12800001 32:5 33:4 34:2 #
0.018184146310544171964984627720696 1:0 2:3000 3:22 4:0 5:0.61000001 6:0.11 7:0 8:0.1 9:0 10:0 11:7 12:4 13:2.4000001 14:3.7 15:0.30000001 16:6.5 17:4.4000001 18:2.9000001 19:6 20:-0.1 21:5.8000002 22:6 23:32 24:32 25:8.1000004 26:5.1999998 27:0 28:10 29:19 30:0 31:0.046116505 32:8 33:8 34:9 #
0.018184146310544171964984627720696 1:1 2:4200 3:25.5 4:0.029999999 5:0.1 6:-0.0099999998 7:0 8:0 9:0 10:0 11:0 12:5.3000002 13:5.9000001 14:5.3000002 15:1.1 16:6.9000001 17:9.1000004 18:9 19:8 20:4 21:14 22:10.2 23:20 24:13 25:5.0999999 26:4.0999999 27:18.1 28:30 29:63 30:3 31:0.13432837 32:4 33:3 34:2 #
0.018184146310544171964984627720696 1:0 2:3000 3:17.799999 4:-0.02 5:0.050000001 6:0.07 7:0 8:0 9:0 10:0 11:0 12:1 13:1 14:0 15:0.69999999 16:4.6999998 17:3.0999999 18:3.0999999 19:0 20:-2.3 21:8.6000004 22:0 23:11 24:24 25:9.3999996 26:0 27:0 28:2 29:3 30:1 31:0.0099667776 32:11 33:11 34:4 #
0.018184146310544171964984627720696 1:3 2:4200 3:25.299999 4:0.13 5:0.07 6:-0.0099999998 7:0.30000001 8:0.1 9:0 10:0 11:15 12:4.3000002 13:4.3000002 14:4.3000002 15:0.30000001 16:10.8 17:12.4 18:10.8 19:7 20:0.30000001 21:21.4 22:7.5999999 23:29 24:16 25:8.8000002 26:8.3999996 27:19.9 28:21 29:29 30:3 31:0.088145897 32:5 33:5 34:3 #
0.018184146310544171964984627720696 1:0 2:3000 3:17.5 4:-0.15000001 5:-0.23999999 6:-0.34999999 7:0.30000001 8:0.30000001 9:0 10:0 11:7 12:1.7 13:1.3 14:1.5 15:0 16:9.1999998 17:2.8 18:2.0999999 19:3 20:-0.2 21:4.4000001 22:2.0999999 23:1 24:2 25:5.1999998 26:0.69999999 27:2.4000001 28:3 29:5 30:0 31:0.018867925 32:8 33:8 34:5 #
0.018184146310544171964984627720696 1:1 2:4200 3:22.799999 4:0.13 5:-0.029999999 6:0.1 7:0 8:0.40000001 9:0.69999999 10:0.1 11:9 12:7.6999998 13:4.5 14:5.5999999 15:0.40000001 16:6.8000002 17:10.9 18:7 19:10 20:-2.2 21:16.200001 22:10.9 23:30 24:28 25:1 26:3.9000001 27:0 28:19 29:38 30:2 31:0.089834519 32:5 33:5 34:3 #
0.018184146310544171964984627720696 1:0 2:3000 3:18.5 4:0.02 5:0.15000001 6:0.16 7:0 8:0 9:0 10:0 11:0 12:1.7 13:2.7 14:0.5 15:0.5 16:10.1 17:3.8 18:4.4000001 19:1 20:1.7 21:7 22:0 23:15 24:28 25:2 26:0 27:8 28:11 29:17 30:0 31:0.040865384 32:6 33:7 34:10 #
-0.38187494586932158036063356121304 1:0 2:3800 3:25.799999 4:0.1 5:-0.079999998 6:0.029999999 7:0 8:0.1 9:0 10:0 11:10 12:2.3 13:5.5 14:5 15:0.40000001 16:6.6999998 17:1 18:7.4000001 19:8 20:-1.1 21:15.8 22:9.8999996 23:27 24:15 25:0 26:0 27:2.9000001 28:32 29:63 30:1 31:0.11433757 32:4 33:4 34:6 #
0.018184146310544171964984627720696 1:14 2:4100 3:17.299999 4:0.059999999 5:-0.14 6:-0.02 7:0 8:0.1 9:0 10:0.1 11:6 12:2 13:5.9000001 14:5.5999999 15:0.69999999 16:9.3000002 17:5.9000001 18:12 19:9 20:0.5 21:23.5 22:10.1 23:9 24:12 25:12 26:0 27:3.4000001 28:30 29:45 30:2 31:0.13846155 32:4 33:3 34:2 #
0.018184146310544171964984627720696 1:0 2:3000 3:23 4:-0.11 5:-0.02 6:-0.02 7:0 8:0 9:0 10:0 11:0 12:2 13:2 14:2 15:0.80000001 16:3.8 17:4.6999998 18:4.4000001 19:3 20:0.5 21:8.1999998 22:3.4000001 23:17 24:25 25:9.1000004 26:3.3 27:0 28:6 29:10 30:2 31:0.042735044 32:8 33:8 34:2 #
0.018184146310544171964984627720696 1:9 2:4100 3:23.5 4:0.25999999 5:0.31999999 6:0.34999999 7:0 8:0 9:0 10:0 11:0 12:6 13:5.3000002 14:6.0999999 15:0.5 16:7.9000001 17:12 18:9.3999996 19:10 20:-3.2 21:22 22:9.3000002 23:31 24:31 25:28 26:6.1999998 27:1.7 28:12 29:24 30:1 31:0.1632653 32:4 33:3 34:2 #
0.018184146310544171964984627720696 1:0 2:3000 3:24.299999 4:-0.22 5:0.2 6:-0.18000001 7:0 8:0 9:0 10:0 11:0 12:4 13:3.3 14:0.80000001 15:0.30000001 16:3.7 17:4.8000002 18:4.1999998 19:1 20:-0.69999999 21:9.1000004 22:1.6 23:6 24:3 25:11.2 26:3.3 27:0 28:6 29:13 30:1 31:0.061611373 32:7 33:5 34:4 #
0.018184146310544171964984627720696 1:6 2:4100 3:22 4:-0.14 5:-0.050000001 6:-0.27000001 7:0 8:0.1 9:0 10:0 11:3 12:4.6999998 13:6.5999999 14:4.8000002 15:0.89999998 16:10.2 17:3.4000001 18:13.6 19:8 20:2 21:25.200001 22:9.1000004 23:3 24:2 25:2.5 26:0 27:1.5 28:38 29:76 30:4 31:0.20821919 32:4 33:2 34:2 #
-0.090917110641002607529514989437303 1:1 2:4100 3:24 4:-0.16 5:0.050000001 6:-0.22 7:0 8:0 9:0 10:0 11:0 12:8.3000002 13:5.5999999 14:4.5999999 15:0.30000001 16:7.3000002 17:10.7 18:8.1999998 19:8 20:0.1 21:16.299999 22:7.4000001 23:8 24:3 25:0 26:9.3000002 27:11.6 28:34 29:64 30:1 31:0.17158177 32:3 33:2 34:6 #
0.018184146310544171964984627720696 1:0 2:3000 3:24.5 4:0.19 5:0.2 6:0.23999999 7:0 8:0 9:0 10:0 11:0 12:2 13:2 14:1.8 15:0 16:6 17:2.2 18:2.2 19:3 20:2.2 21:2.2 22:3.5999999 23:26 24:27 25:0 26:0 27:0 28:1 29:2 30:0 31:0.008547009 32:10 33:11 34:6 #
0.018184146310544171964984627720696 1:2 2:4100 3:18.799999 4:-0.13 5:-0.090000004 6:-0.25999999 7:0.30000001 8:0.1 9:0.80000001 10:0 11:10 12:5 13:6.5999999 14:5 15:0.5 16:7.1999998 17:10.4 18:9.8000002 19:9 20:1 21:18.5 22:9.8999996 23:2 24:2 25:6 26:0 27:14.9 28:30 29:55 30:1 31:0.14322917 32:3 33:3 34:4 #
0.018184146310544171964984627720696 1:0 2:3000 3:23.5 4:0.18000001 5:-0.19 6:0.090000004 7:0.30000001 8:0.2 9:0 10:0 11:0 12:2.3 13:2.4000001 14:1.5 15:0.2 16:6.0999999 17:3 18:2.9000001 19:3 20:0.2 21:5.5 22:2.9000001 23:27 24:21 25:4.4000001 26:4.5 27:0 28:8 29:13 30:0 31:0.079268292 32:4 33:4 34:4 #
0.018184146310544171964984627720696 1:7 2:4100 3:20 4:0.079999998 5:-0.25 6:0.18000001 7:1.7 8:1.8 9:2 10:0.40000001 11:4.5 12:7 13:8.3000002 14:7.6999998 15:0.89999998 16:4.8000002 17:10.4 18:10.9 19:17 20:2.8 21:19 22:13.6 23:21 24:21 25:2.8 26:0 27:22.700001 28:37 29:65 30:2 31:0.22887324 32:2 33:1 34:3 #
0.018184146310544171964984627720696 1:0 2:3000 3:20.5 4:0.079999998 5:-0.23 6:0.079999998 7:0 8:0 9:0 10:0 11:0 12:2 13:1.8 14:2.9000001 15:0 16:12 17:7 18:4.5999999 19:5 20:-0.89999998 21:10 22:5.0999999 23:11 24:15 25:0 26:9.6000004 27:0 28:6 29:9 30:1 31:0.018867925 32:10 33:11 34:4 #
0.018184146310544171964984627720696 1:0 2:4100 3:25.5 4:-0.11 5:-0.050000001 6:-0.07 7:0 8:0 9:0.2 10:0 11:0 12:5 13:4.8000002 14:6.3000002 15:1 16:9 17:7.6999998 18:1.2 19:10 20:-0.60000002 21:18.6 22:10.7 23:5 24:7 25:1.2 26:0 27:0 28:1 29:5 30:0 31:0.043103449 32:7 33:6 34:6 #
0.018184146310544171964984627720696 1:0 2:3000 3:24.299999 4:0.1 5:0.30000001 6:0.15000001 7:0 8:0 9:0 10:0 11:0 12:2 13:2 14:2.7 15:0 16:3.5 17:1.8 18:2.2 19:4 20:0.40000001 21:4 22:4.4000001 23:26 24:28 25:3.9000001 26:1.5 27:0 28:7 29:10 30:0 31:0.061728396 32:6 33:6 34:3 #
-0.12728079679022030745727533940226 1:4 2:3900 3:25.5 4:0.029999999 5:-0.2 6:0 7:0 8:0 9:0 10:0 11:0 12:7.3000002 13:7.1999998 14:5.5 15:1.1 16:7.3000002 17:10.3 18:10.6 19:9 20:6.3000002 21:14.9 22:10.5 23:25 24:29 25:14.1 26:0 27:12.7 28:43 29:68 30:1 31:0.18630137 32:3 33:1 34:4 #
0.018184146310544171964984627720696 1:0 2:3000 3:19 4:-0.02 5:0.14 6:0.090000004 7:0 8:0 9:0 10:0 11:0 12:4.3000002 13:3.8 14:2.5 15:0.30000001 16:4.6999998 17:2.9000001 18:2.8 19:4 20:0.40000001 21:5.0999999 22:4.4000001 23:10 24:23 25:0 26:0 27:0 28:4 29:15 30:0 31:0.042492919 32:10 33:6 34:8 #
0.018184146310544171964984627720696 1:1 2:4100 3:26.799999 4:0.1 5:0.059999999 6:0.0099999998 7:0 8:0 9:0 10:0 11:0 12:8 13:6.3000002 14:5.6999998 15:1.1 16:6.8000002 17:14.2 18:10.7 19:10 20:2.5999999 21:18.700001 22:13.3 23:26 24:27 25:23.4 26:3.5999999 27:15.7 28:34 29:53 30:3 31:0.18661971 32:2 33:2 34:2 #
0.018184146310544171964984627720696 1:0 2:4100 3:21.5 4:-0.17 5:0.050000001 6:-0.1 7:0 8:0 9:0 10:0 11:0 12:5.3000002 13:6.5 14:4.5999999 15:0.5 16:7.5 17:8.3999996 18:10.4 19:7 20:1.4 21:19.299999 22:8.3000002 23:10 24:5 25:4.1999998 26:10.9 27:10 28:37 29:71 30:2 31:0.15301724 32:4 33:3 34:3 #
0.018184146310544171964984627720696 1:0 2:3000 3:25.799999 4:0.1 5:-0.079999998 6:0.029999999 7:0 8:0 9:0 10:0 11:0 12:1.3 13:1 14:2.3 15:0.1 16:5.3000002 17:2.9000001 18:2 19:4 20:-1.2 21:5.0999999 22:4.8000002 23:27 24:15 25:7.9000001 26:0 27:0.89999998 28:4 29:7 30:1 31:0.012704174 32:10 33:10 34:6 #
0.018184146310544171964984627720696 1:6 2:4100 3:20.799999 4:0.029999999 5:0 6:0.02 7:0 8:0 9:0 10:0 11:0 12:7.3000002 13:7.4000001 14:6.4000001 15:1.2 16:6.8000002 17:8.6999998 18:10.1 19:11 20:3.5999999 21:16.5 22:12 23:25 24:17 25:3.3 26:0 27:22.799999 28:33 29:69 30:2 31:0.17602041 32:3 33:2 34:3 #
0.018184146310544171964984627720696 1:0 2:3000 3:20.5 4:0.029999999 5:-0.28999999 6:0.1 7:0 8:0 9:0 10:0 11:0 12:2.7 13:3.3 14:0.89999998 15:0.30000001 16:6.6999998 17:2.9000001 18:2.9000001 19:2 20:0.80000001 21:8.6000004 22:2.3 23:15 24:25 25:0 26:6.5 27:2.0999999 28:4 29:9 30:0 31:0.080357142 32:8 33:6 34:3 #
0.018184146310544171964984627720696 1:1 2:4100 3:21.5 4:0.14 5:-0.17 6:-0.059999999 7:0 8:0 9:0 10:0 11:0 12:4 13:6.0999999 14:4.6999998 15:1 16:6 17:7.1999998 18:9 19:7 20:4.8000002 21:13.1 22:9.6000004 23:27 24:24 25:11.5 26:10.2 27:0 28:20 29:43 30:3 31:0.15034965 32:4 33:4 34:2 #
0.018184146310544171964984627720696 1:0 2:3000 3:24.5 4:-0.050000001 5:-0.22 6:-0.19 7:0 8:0 9:0 10:0 11:0 12:2 13:3.5999999 14:0.69999999 15:0.80000001 16:7 17:4.4000001 18:6.3000002 19:1 20:1 21:11.6 22:1.2 23:5 24:9 25:8 26:1.6 27:0 28:13 29:17 30:1 31:0.063197024 32:7 33:7 34:6 #
0.018184146310544171964984627720696 1:0 2:4100 3:22.799999 4:0.02 5:-0.30000001 6:-0.02 7:0.30000001 8:0.2 9:0 10:0 11:15 12:4.6999998 13:4.5 14:4.0999999 15:0.2 16:11.7 17:10.5 18:11.2 19:7 20:-0.30000001 21:22.700001 22:7.3000002 23:13 24:24 25:8.3999996 26:19.9 27:3.2 28:19 29:26 30:2 31:0.086092718 32:5 33:6 34:4 #
0.018184146310544171964984627720696 1:0 2:3000 3:24 4:0.14 5:0.30000001 6:0.14 7:0.30000001 8:0.2 9:0 10:0 11:30 12:3.7 13:3.8 14:3 15:0 16:6.4000001 17:6.1999998 18:5.4000001 19:5 20:2.3 21:8.6000004 22:7.3000002 23:32 24:30 25:10.1 26:6.4000001 27:2 28:12 29:19 30:0 31:0.075999998 32:5 33:6 34:6 #
0.018184146310544171964984627720696 1:3 2:4100 3:24 4:0.13 5:0.029999999 6:0 7:0 8:0 9:0 10:0 11:0 12:3.3 13:4.5999999 14:5.5999999 15:0.40000001 16:6.1999998 17:6.4000001 18:6.4000001 19:10 20:-0.2 21:13 22:11.6 23:26 24:17 25:0 26:2.7 27:16.6 28:13 29:31 30:2 31:0.14761905 32:3 33:3 34:1 #
0.018184146310544171964984627720696 1:0 2:3000 3:24.799999 4:-0.090000004 5:-0.059999999 6:-0.029999999 7:0 8:0 9:0 10:0 11:0 12:6 13:5 14:4.5999999 15:0.69999999 16:6.8000002 17:6.5999999 18:6.3000002 19:8 20:3.5999999 21:9 22:8.8999996 23:5 24:19 25:4.5999999 26:5.5999999 27:9.6999998 28:28 29:47 30:0 31:0.15161291 32:3 33:3 34:5 #
0.018184146310544171964984627720696 1:1 2:4100 3:26.299999 4:0.14 5:0.11 6:0.039999999 7:0 8:0 9:0 10:0 11:0 12:6 13:7.1999998 14:4.4000001 15:0.60000002 16:5.3000002 17:5 18:7.4000001 19:7 20:2.9000001 21:11.9 22:9.1999998 23:31 24:19 25:3.7 26:3.5 27:7.8000002 28:19 29:40 30:0 31:0.23529412 32:2 33:1 34:5 #
0.018184146310544171964984627720696 1:0 2:3000 3:20.5 4:0.029999999 5:-0.059999999 6:-0.050000001 7:0 8:0 9:0 10:0 11:0 12:1.3 13:1.3 14:3.8 15:0 16:7.4000001 17:1.6 18:1.7 19:6 20:0.30000001 21:3 22:6.8000002 23:11 24:10 25:0 26:0 27:0 28:4 29:9 30:0 31:0.032142859 32:9 33:8 34:6 #
0.018184146310544171964984627720696 1:2 2:4100 3:23.799999 4:0.13 5:-0.13 6:0.11 7:0 8:0.1 9:0 10:0 11:-1 12:2.3 13:5.9000001 14:4.6999998 15:0.60000002 16:8.3999996 17:2.5999999 18:10.7 19:8 20:1.4 21:20 22:8.8999996 23:28 24:29 25:4.4000001 26:1.8 27:0 28:42 29:67 30:3 31:0.15801887 32:2 33:3 34:4 #
0.018184146310544171964984627720696 1:0 2:3000 3:22.299999 4:-0.25 5:0.16 6:-0.13 7:0.30000001 8:0.2 9:0 10:0 11:7 12:1 13:0.80000001 14:1.7 15:0 16:9 17:1.9 18:1.5 19:3 20:-1 21:3.9000001 22:2.8 23:5 24:3 25:5.5999999 26:0 27:0 28:3 29:5 30:0 31:0.023696683 32:10 33:10 34:7 #
0.018184146310544171964984627720696 1:17 2:4000 3:22 4:0 5:0.61000001 6:0.11 7:0 8:0 9:0 10:0 11:0 12:7.5 13:7.5 14:6.9000001 15:1 16:10.7 17:17 18:17 19:11 20:-0.69999999 21:34.700001 22:12.1 23:32 24:32 25:29.5 26:0 27:0 28:9 29:15 30:1 31:0.036407769 32:9 33:9 34:4 #
0.018184146310544171964984627720696 1:2 2:3000 3:24.299999 4:-0.059999999 5:0.07 6:0.12 7:0 8:0 9:0 10:0 11:0 12:2.7 13:2.2 14:5.5 15:0.60000002 16:6.8000002 17:3.8 18:4.4000001 19:9 20:0.69999999 21:8.1000004 22:9.8000002 23:13 24:21 25:1.5 26:7.6999998 27:0 28:14 29:20 30:2 31:0.047393367 32:8 33:8 34:5 #
0.018184146310544171964984627720696 1:3 2:4000 3:18.299999 4:0.07 5:-0.059999999 6:0.050000001 7:0 8:0 9:0 10:0 11:0 12:9.3000002 13:9 14:5.8000002 15:0.80000001 16:6.8000002 17:17.5 18:14.3 19:9 20:4.5999999 21:24 22:10.2 23:10 24:13 25:27.200001 26:20.799999 27:4.4000001 28:27 29:46 30:2 31:0.30872482 32:1 33:1 34:1 #
0.018184146310544171964984627720696 1:0 2:3000 3:24.799999 4:-0.090000004 5:0 6:0.050000001 7:0 8:0 9:0 10:0 11:0 12:4 13:1.8 14:1 15:0.30000001 16:8.3000002 17:7.3000002 18:3.9000001 19:2 20:0.1 21:7.8000002 22:1.6 23:12 24:22 25:7.5 26:3.9000001 27:10.4 28:13 29:21 30:1 31:0.047511313 32:6 33:6 34:6 #
0.018184146310544171964984627720696 1:8 2:4000 3:18 4:-0.13 5:-0.02 6:-0.1 7:1 8:0.5 9:0 10:0 11:5.8000002 12:7.6999998 13:6.5999999 14:7 15:0.5 16:8.5 17:13.5 18:11.3 19:12 20:5.8000002 21:16.799999 22:11 23:6 24:6 25:19.299999 26:7.4000001 27:13.9 28:56 29:90 30:2 31:0.16853933 32:2 33:2 34:4 #
0.018184146310544171964984627720696 1:0 2:3000 3:22.799999 4:-0.050000001 5:0.25999999 6:-0.090000004 7:0 8:0 9:0 10:0 11:0 12:2.3 13:2 14:1.9 15:0.80000001 16:3.4000001 17:4.1999998 18:3.2 19:3 20:-0.1 21:6.4000001 22:3.3 23:17 24:26 25:3.3 26:0 27:1.8 28:4 29:8 30:1 31:0.039800994 32:9 33:8 34:4 #
0.018184146310544171964984627720696 1:1 2:4000 3:16.799999 4:-0.07 5:-0.090000004 6:-0.059999999 7:1.7 8:3.0999999 9:2 10:0.1 11:8.3000002 12:9.6999998 13:6.4000001 14:5.9000001 15:0.60000002 16:5.5999999 17:12.5 18:12.5 19:14 20:4.4000001 21:21.6 22:11 23:8 24:12 25:21.4 26:10.6 27:5.5 28:14 29:28 30:1 31:0.30434781 32:1 33:1 34:1 #
0.018184146310544171964984627720696 1:1 2:3000 3:19.5 4:0.02 5:-0.029999999 6:-0.1 7:0 8:0.1 9:0 10:0 11:30 12:6 13:4.5999999 14:4.8000002 15:0.40000001 16:7.3000002 17:8.3000002 18:6.5 19:8 20:3.5 21:9.5 22:8 23:10 24:7 25:0 26:9.8999996 27:8.8999996 28:23 29:37 30:1 31:0.10601719 32:5 33:4 34:5 #
0.018184146310544171964984627720696 1:0 2:4000 3:17.799999 4:-0.19 5:0.13 6:-0.34 7:1 8:0.40000001 9:0.2 10:0 11:6.3000002 12:6.6999998 13:6.3000002 14:7.5999999 15:0.60000002 16:8.3999996 17:13.1 18:11 19:13 20:5.5999999 21:16.299999 22:11.7 23:3 24:1 25:13.9 26:15.8 27:9.6000004 28:48 29:71 30:2 31:0.15673289 32:2 33:3 34:4 #
0.018184146310544171964984627720696 1:0 2:3000 3:24 4:0.22 5:0 6:0.079999998 7:0 8:0 9:0 10:0 11:0 12:2 13:2 14:1.1 15:0 16:3.3 17:1.1 18:1.1 19:2 20:-0.5 21:2.8 22:1.8 23:32 24:26 25:0 26:2.3 27:0 28:1 29:4 30:0 31:0.031007752 32:11 33:7 34:4 #
0.018184146310544171964984627720696 1:5 2:4000 3:24.5 4:-0.02 5:0.18000001 6:-0.0099999998 7:0 8:0 9:0 10:0 11:0 12:7 13:6.1999998 14:5.9000001 15:1.2 16:6.5999999 17:12.6 18:11.9 19:10 20:7 21:16.799999 22:10.8 23:16 24:11 25:20 26:8.8000002 27:9.1000004 28:31 29:39 30:4 31:0.1780822 32:1 33:3 34:1 #
0.018184146310544171964984627720696 1:0 2:3000 3:24.799999 4:-0.090000004 5:-0.059999999 6:-0.029999999 7:0 8:0 9:0 10:0 11:0 12:2.3 13:2.3 14:1.4 15:0.30000001 16:10.2 17:5 18:3.7 19:2 20:1.2 21:6.0999999 22:3.7 23:5 24:19 25:7.1999998 26:2.5 27:5.3000002 28:11 29:19 30:0 31:0.061290324 32:7 33:6 34:5 #
0.018184146310544171964984627720696 1:3 2:4000 3:17.5 4:-0.0099999998 5:0.0099999998 6:-0.029999999 7:1 8:0.30000001 9:0.2 10:0 11:7.6999998 12:7.3000002 13:6.3000002 14:6.3000002 15:0.69999999 16:8.6000004 17:13 18:10.7 19:11 20:5.1999998 21:16.200001 22:9.1999998 23:13 24:12 25:15.8 26:9.6000004 27:13.5 28:44 29:65 30:1 31:0.15222482 32:2 33:3 34:4 #
0.018184146310544171964984627720696 1:0 2:3000 3:21 4:0.11 5:-0.13 6:0.14 7:0 8:0 9:0 10:0 11:0 12:1.3 13:2.3 14:0 15:0.1 16:7.5 17:5.3000002 18:4.3000002 19:0 20:-1.2 21:9.8000002 22:0 23:22 24:30 25:0 26:14.6 27:0 28:9 29:18 30:2 31:0.044117648 32:7 33:7 34:3 #
0.018184146310544171964984627720696 1:2 2:4000 3:18.799999 4:-0.13 5:-0.090000004 6:-0.25999999 7:0 8:0 9:0 10:0 11:0 12:5 13:6.0999999 14:6 15:0.89999998 16:7.3000002 17:13.3 18:10.1 19:9 20:5.0999999 21:15.1 22:10.6 23:2 24:2 25:18.1 26:0 27:0 28:26 29:51 30:3 31:0.1328125 32:4 33:4 34:2 #
-0.018182283500229053097019260576417 1:3 2:4000 3:17.299999 4:0.029999999 5:-0.079999998 6:-0.02 7:0 8:0.1 9:0 10:0.1 11:6 12:5.6999998 13:5.8000002 14:6.4000001 15:0.80000001 16:8.8999996 17:7.5 18:10.6 19:11 20:0.89999998 21:20.4 22:12.5 23:18 24:7 25:9.6999998 26:3.9000001 27:8.8999996 28:40 29:65 30:2 31:0.14976959 32:3 33:2 34:2 #
0.018184146310544171964984627720696 1:0 2:3000 3:24.799999 4:-0.11 5:-0.23999999 6:0.029999999 7:0.30000001 8:0.2 9:0 10:0 11:60 12:3.3 13:2.5999999 14:2.4000001 15:0.40000001 16:5.1999998 17:11.4 18:7.1999998 19:4 20:1.3 21:13 22:3.8 23:7 24:26 25:0 26:12 27:12 28:6 29:14 30:3 31:0.050724637 32:8 33:8 34:2 #
0.018184146310544171964984627720696 1:2 2:4000 3:27.799999 4:0.059999999 5:0.1 6:0.2 7:0 8:0 9:0 10:0 11:0 12:6.6999998 13:6.5 14:6 15:1.1 16:7.1999998 17:8.8000002 18:8.8000002 19:10 20:6.1999998 21:15.5 22:11.3 23:26 24:31 25:10.9 26:4.5 27:11.1 28:13 29:20 30:0 31:0.16 32:4 33:4 34:3 #
0.018184146310544171964984627720696 1:0 2:3000 3:22 4:0.11 5:-0.2 6:0.039999999 7:0.30000001 8:0.1 9:0 10:0.1 11:1 12:3.3 13:5.8000002 14:4 15:0.40000001 16:5.5999999 17:4 18:6.0999999 19:7 20:1.4 21:10.8 22:9 23:20 24:12 25:2.0999999 26:9.8999996 27:0.1 28:24 29:52 30:0 31:0.2 32:4 33:1 34:9 #
0.018184146310544171964984627720696 1:9 2:4000 3:27.5 4:0.050000001 5:0.14 6:0.18000001 7:1 8:0.40000001 9:0 10:0.1 11:17 12:5 13:3.5 14:3.5999999 15:0.1 16:13.5 17:19.799999 18:11.7 19:6 20:3.3 21:20.200001 22:6.8000002 23:16 24:31 25:0 26:0 27:0 28:21 29:29 30:4 31:0.075324677 32:5 33:5 34:2 #
0.018184146310544171964984627720696 1:0 2:3000 3:20.799999 4:0.029999999 5:0 6:0.02 7:0 8:0 9:0 10:0 11:0 12:0.69999999 13:1.1 14:0.40000001 15:0.1 16:12.9 17:0.89999998 18:2.8 19:1 20:-1.3 21:6.9000001 22:0 23:25 24:17 25:0 26:2.5999999 27:0 28:5 29:9 30:1 31:0.022959184 32:9 33:8 34:4 #
0.018184146310544171964984627720696 1:1 2:4000 3:25.299999 4:0.0099999998 5:0.02 6:-0.039999999 7:0 8:0.1 9:0 10:0 11:-2 12:3 13:5.0999999 14:4.5 15:0.89999998 16:8.3999996 17:7.3000002 18:10.2 19:8 20:2 21:18.299999 22:7 23:14 24:13 25:1.9 26:0 27:1.6 28:28 29:47 30:4 31:0.15719064 32:3 33:2 34:1 #
0.018184146310544171964984627720696 1:0 2:3000 3:25.5 4:0.07 5:0.07 6:0.050000001 7:0 8:0 9:0 10:0 11:0 12:2.3 13:2.3 14:1.9 15:0.2 16:9 17:3.8 18:3.4000001 19:3 20:1 21:5.9000001 22:4.9000001 23:27 24:27 25:1.6 26:7.1999998 27:2.5 28:12 29:22 30:0 31:0.069400631 32:6 33:5 34:5 #
0.018184146310544171964984627720696 1:1 2:4000 3:26.799999 4:-0.02 5:-0.2 6:-0.050000001 7:0 8:0.30000001 9:0 10:0 11:2.5 12:3.3 13:5.0999999 14:4.8000002 15:0.5 16:10.4 17:0.5 18:9.6999998 19:8 20:-1.7 21:21.200001 22:8.3999996 23:8 24:8 25:0 26:0 27:1.4 28:20 29:39 30:2 31:0.12074304 32:4 33:3 34:4 #
0.018184146310544171964984627720696 1:2 2:3000 3:24.799999 4:0.11 5:0.090000004 6:0.050000001 7:0 8:0.1 9:0 10:0 11:30 12:4.6999998 13:4.3000002 14:4.5999999 15:0.30000001 16:7.8000002 17:7.6999998 18:6.3000002 19:8 20:3.4000001 21:9.1999998 22:8.6000004 23:29 24:21 25:4.4000001 26:0 27:9.8999996 28:26 29:40 30:1 31:0.10498688 32:5 33:4 34:5 #
0.018184146310544171964984627720696 1:0 2:4000 3:24.5 4:0.090000004 5:-0.13 6:0 7:0 8:0.1 9:0 10:0 11:-2 12:4 13:5.5 14:5.8000002 15:1 16:8.6000004 17:9.6999998 18:11.2 19:9 20:3.0999999 21:19.299999 22:8 23:12 24:20 25:0 26:1.6 27:18.299999 28:28 29:47 30:4 31:0.15719064 32:3 33:2 34:1 #
0.018184146310544171964984627720696 1:0 2:3000 3:26.299999 4:0.16 5:-0.039999999 6:0.11 7:0 8:0 9:0 10:0 11:0 12:2.3 13:2.3 14:0.89999998 15:0 16:8.1000004 17:3.4000001 18:3.0999999 19:2 20:0.30000001 21:5.8000002 22:2.4000001 23:30 24:23 25:0 26:3.7 27:0 28:5 29:10 30:0 31:0.070921987 32:7 33:6 34:5 #
0.018184146310544171964984627720696 1:7 2:3900 3:23.799999 4:0.039999999 5:-0.20999999 6:0.059999999 7:0 8:0 9:0 10:0 11:0 12:8 13:7.1999998 14:7 15:1 16:8.1999998 17:17.799999 18:12.2 19:12 20:5.8000002 21:18.700001 22:12.3 23:11 24:16 25:26.6 26:14.1 27:0 28:49 29:75 30:2 31:0.18891688 32:2 33:1 34:3 #
0.018184146310544171964984627720696 1:0 2:3000 3:19 4:0.13 5:-0.059999999 6:0.07 7:0 8:0 9:0 10:0 11:0 12:2.3 13:1.6 14:1.7 15:0 16:7 17:3.4000001 18:2 19:3 20:-0.60000002 21:4.5999999 22:3.0999999 23:30 24:23 25:0 26:0 27:0 28:9 29:17 30:0 31:0.042394016 32:8 33:8 34:8 #
0.018184146310544171964984627720696 1:22 2:3900 3:25.799999 4:0.1 5:-0.079999998 6:0.029999999 7:0.30000001 8:0.40000001 9:0.80000001 10:0.1 11:20.799999 12:2.7 13:4 14:6.5999999 15:0.40000001 16:7.3000002 17:11.9 18:8.3000002 19:11 20:-0.30000001 21:17 22:13.6 23:27 24:15 25:19.4 26:11.2 27:5 28:23 29:46 30:4 31:0.083484575 32:6 33:6 34:2 #
0.018184146310544171964984627720696 1:0 2:3000 3:29 4:-0.13 5:0.72000003 6:-0.07 7:0 8:0 9:0 10:0 11:0 12:1.7 13:3.3 14:0.69999999 15:0.80000001 16:8.5 17:5.3000002 18:6.3000002 19:1 20:1.6 21:11.1 22:0 23:29 24:20 25:6.4000001 26:8 27:1.6 28:15 29:19 30:1 31:0.06188925 32:7 33:7 34:6 #
0.018184146310544171964984627720696 1:13 2:3900 3:22 4:0.090000004 5:0.02 6:0.18000001 7:0 8:0 9:0 10:0 11:0 12:6.6999998 13:6.3000002 14:6.0999999 15:0.30000001 16:6.8000002 17:9.6999998 18:8.8000002 19:11 20:2.7 21:14.8 22:10.5 23:11 24:18 25:15.9 26:11.1 27:2 28:18 29:26 30:0 31:0.22222222 32:1 33:1 34:5 #
-0.23637689029174580035430608404567 1:0 2:3900 3:23.299999 4:-0.02 5:0.18000001 6:0.1 7:0 8:0 9:0 10:0 11:0 12:6 13:5.5999999 14:5.9000001 15:0.60000002 16:6.5999999 17:10 18:10.3 19:10 20:7 21:13.5 22:11.1 23:11 24:14 25:8.8000002 26:9.1000004 27:12.2 28:23 29:30 30:3 31:0.16129032 32:3 33:4 34:1 #
0.018184146310544171964984627720696 1:0 2:3000 3:21.799999 4:0.11 5:0.16 6:0.20999999 7:0 8:0 9:0 10:0 11:0 12:3 13:2.5 14:0.89999998 15:0.2 16:3.7 17:4.3000002 18:3.0999999 19:2 20:-1.1 21:7.3000002 22:2.2 23:26 24:26 25:0 26:1.7 27:11.2 28:7 29:15 30:1 31:0.054744527 32:7 33:7 34:4 #
0.018184146310544171964984627720696 1:7 2:3900 3:29 4:0.12 5:0.12 6:0.079999998 7:0 8:0.2 9:0 10:0 11:-2 12:7.3000002 13:6.1999998 14:5.3000002 15:1.3 16:7.8000002 17:14.8 18:11.6 19:9 20:3.7 21:19.5 22:8.8999996 23:31 24:21 25:9.3000002 26:26.799999 27:8.3999996 28:23 29:39 30:3 31:0.17333333 32:3 33:2 34:1 #
0.018184146310544171964984627720696 1:0 2:3000 3:25.5 4:0.14 5:0.090000004 6:0 7:0 8:0 9:0 10:0 11:0 12:1 13:2.2 14:0.89999998 15:0 16:7.5 17:1.9 18:2.9000001 19:1 20:0.40000001 21:5.3000002 22:2.5999999 23:30 24:19 25:2 26:0 27:0 28:6 29:12 30:0 31:0.056338027 32:6 33:6 34:5 #
0.018184146310544171964984627720696 1:2 2:3900 3:19 4:-0.02 5:0.14 6:0.090000004 7:0.30000001 8:0.30000001 9:0 10:0 11:5 12:6.3000002 13:5.9000001 14:5.4000001 15:0.40000001 16:7.1999998 17:11.4 18:9.5 19:9 20:3.0999999 21:16 22:9.8999996 23:10 24:23 25:9.8000002 26:15.6 27:8.8000002 28:40 29:59 30:1 31:0.16713881 32:2 33:2 34:4 #
0.018184146310544171964984627720696 1:0 2:3000 3:23.799999 4:0.12 5:0.090000004 6:0.1 7:0.30000001 8:0.2 9:0 10:0 11:7 12:2 13:1.4 14:0.60000002 15:0 16:7.0999999 17:2.4000001 18:1.9 19:1 20:-0.1 21:4 22:0 23:29 24:30 25:0 26:1.4 27:5.1999998 28:4 29:7 30:0 31:0.023648649 32:8 33:8 34:6 #
0.018184146310544171964984627720696 1:0 2:3900 3:16.799999 4:-0.07 5:-0.090000004 6:-0.059999999 7:0 8:0 9:0 10:0 11:0 12:7.3000002 13:4.8000002 14:5.3000002 15:0.30000001 16:9.1000004 17:11 18:11 19:9 20:2 21:13 22:7.1999998 23:8 24:12 25:6.8000002 26:15.4 27:10.7 28:14 29:24 30:0 31:0.26086956 32:1 33:2 34:3 #
0.018184146310544171964984627720696 1:0 2:3000 3:29.299999 4:0.14 5:0.059999999 6:0.050000001 7:0 8:0 9:0 10:0 11:0 12:2.3 13:3 14:2.9000001 15:0.40000001 16:8.1000004 17:2.7 18:5.1999998 19:5 20:0.89999998 21:9.6000004 22:5.3000002 23:29 24:19 25:3.0999999 26:4.9000001 27:0 28:8 29:18 30:1 31:0.043689322 32:8 33:8 34:6 #
0.018184146310544171964984627720696 1:4 2:3900 3:19.799999 4:0.13 5:-0.050000001 6:0.059999999 7:1.7 8:1.7 9:1.7 10:0.30000001 11:4.8000002 12:4.3000002 13:7.1999998 14:7.5 15:0.69999999 16:5.0999999 17:8.1000004 18:10.1 19:16 20:2.5999999 21:17.6 22:12.1 23:30 24:25 25:0 26:15.5 27:3.9000001 28:44 29:78 30:3 31:0.19117647 32:3 33:2 34:2 #
0.018184146310544171964984627720696 1:0 2:3000 3:23.5 4:-0.039999999 5:0.050000001 6:-0.17 7:0 8:0 9:0 10:0 11:0 12:2 13:1.8 14:2 15:0.69999999 16:3.9000001 17:4.5999999 18:3.9000001 19:3 20:0.2 21:7.5 22:3.3 23:20 24:16 25:1.5 26:9.1000004 27:3.3 28:7 29:11 30:2 31:0.040441178 32:8 33:8 34:2 #
0.018184146310544171964984627720696 1:3 2:3900 3:20 4:-0.039999999 5:0.2 6:0.029999999 7:1.3 8:1.8 9:2.4000001 10:0.30000001 11:4.5999999 12:8 13:8.1000004 14:6 15:0.89999998 16:4.5999999 17:10.1 18:10.2 19:14 20:2.4000001 21:18 22:11 23:18 24:26 25:4.9000001 26:2.8 27:0 28:39 29:72 30:2 31:0.22929937 32:2 33:1 34:3 #
0.018184146310544171964984627720696 1:0 2:3000 3:26.799999 4:0.1 5:0.059999999 6:0.0099999998 7:0 8:0 9:0 10:0 11:0 12:2 13:1.9 14:1.8 15:0.40000001 16:6.4000001 17:3.5999999 18:4.3000002 19:3 20:0.40000001 21:8.1999998 22:3.3 23:26 24:27 25:2.3 26:2.5999999 27:6 28:10 29:13 30:2 31:0.045774646 32:8 33:8 34:4 #
0.018184146310544171964984627720696 1:3 2:3900 3:20.5 4:0.029999999 5:-0.28999999 6:0.1 7:0 8:0.30000001 9:0 10:0 11:4 12:4 13:4.5999999 14:5.3000002 15:0.40000001 16:9.8999996 17:6.1999998 18:6.1999998 19:10 20:1.6 21:19 22:11.4 23:15 24:25 25:0 26:13.9 27:4.6999998 28:9 29:16 30:0 31:0.14285715 32:4 33:2 34:3 #
0.018184146310544171964984627720696 1:0 2:3000 3:28.799999 4:0.02 5:0.16 6:0.029999999 7:0 8:0 9:0 10:0 11:0 12:3 13:3 14:1.3 15:0 16:8.3000002 17:3.8 18:3.8 19:2 20:2.4000001 21:5.1999998 22:2.3 23:27 24:20 25:0 26:3.7 27:2.5 28:4 29:9 30:0 31:0.071999997 32:6 33:6 34:4 #
0.018184146310544171964984627720696 1:2 2:3900 3:22.799999 4:-0.13 5:-0.28999999 6:-0.23999999 7:0 8:0 9:0 10:0 11:0 12:4 13:6 14:5.9000001 15:1.2 16:5.3000002 17:7.5999999 18:8.5 19:10 20:4.0999999 21:12.9 22:11.1 23:3 24:7 25:10.2 26:0 27:12.6 28:14 29:35 30:3 31:0.14830509 32:4 33:3 34:2 #
0.018184146310544171964984627720696 1:0 2:3000 3:19 4:0.13 5:-0.059999999 6:0.07 7:0 8:0 9:0 10:0 11:0 12:3.7 13:2.8 14:0 15:0 16:5.8000002 17:2.9000001 18:2.8 19:0 20:0.40000001 21:5.1999998 22:0 23:30 24:23 25:0 26:0 27:0 28:6 29:15 30:0 31:0.037406486 32:10 33:9 34:8 #
0.018184146310544171964984627720696 1:0 2:3900 3:20.299999 4:0.1 5:-0.23999999 6:0.079999998 7:0.30000001 8:0.5 9:0 10:0 11:7.4000001 12:5.6999998 13:4.5 14:3.4000001 15:0.5 16:6.5999999 17:9.6000004 18:8.5 19:6 20:2.2 21:14.7 22:6.0999999 23:15 24:17 25:8.6999998 26:15.3 27:4.6999998 28:39 29:51 30:2 31:0.13212435 32:4 33:4 34:3 #
0.018184146310544171964984627720696 1:0 2:3000 3:23.5 4:0.050000001 5:0.07 6:0.0099999998 7:0.30000001 8:0.30000001 9:0 10:0 11:3 12:3 13:3 14:1.8 15:0 16:8.8999996 17:3.8 18:3.8 19:3 20:-0.80000001 21:8.3999996 22:3.9000001 23:25 24:14 25:0 26:0 27:0 28:3 29:8 30:0 31:0.018018018 32:12 33:10 34:8 #
0.018184146310544171964984627720696 1:0 2:3900 3:20.5 4:-0.2 5:0.12 6:-0.43000001 7:0 8:0 9:0 10:0 11:0 12:6 13:4.8000002 14:3.4000001 15:0.40000001 16:7 17:11.8 18:7.8000002 19:6 20:-3.7 21:19.299999 22:5.6999998 23:5 24:1 25:1.3 26:28 27:6.1999998 28:13 29:26 30:1 31:0.14857143 32:4 33:3 34:5 #
0.018184146310544171964984627720696 1:2 2:3000 3:26 4:0.11 5:-0.23 6:0.059999999 7:0 8:0 9:0 10:0 11:0 12:4.3000002 13:5 14:4.1999998 15:1.2 16:5.6999998 17:7.9000001 18:7.8000002 19:7 20:3.8 21:11.9 22:7.5 23:23 24:24 25:1.6 26:0 27:6.1999998 28:27 29:53 30:3 31:0.13054188 32:3 33:3 34:2 #
0.018184146310544171964984627720696 1:1 2:3900 3:23.799999 4:-0.050000001 5:-0.029999999 6:0.059999999 7:0.69999999 8:0.89999998 9:0 10:0 11:6 12:5 13:4.5999999 14:4.5 15:0.1 16:7.5999999 17:7.3000002 18:6.4000001 19:7 20:2.4000001 21:10.5 22:9.1000004 23:9 24:19 25:10.3 26:0 27:11 28:20 29:32 30:1 31:0.121673 32:4 33:4 34:4 #
0.018184146310544171964984627720696 1:0 2:3000 3:25.5 4:0.07 5:0.029999999 6:0.18000001 7:0 8:0 9:0 10:0 11:0 12:1 13:1 14:1.7 15:0.30000001 16:1.3 17:0.5 18:0.40000001 19:3 20:-0.40000001 21:1.1 22:2.5 23:29 24:28 25:0 26:0 27:0 28:1 29:4 30:0 31:0.017241379 32:9 33:9 34:7 #
0.018184146310544171964984627720696 1:4 2:3900 3:25.5 4:0.14 5:0.090000004 6:0 7:0.30000001 8:0.2 9:0 10:0 11:2 12:3.3 13:3.7 14:4.6999998 15:0.30000001 16:7.5 17:3.7 18:5 19:8 20:0.2 21:9.6999998 22:10.2 23:30 24:19 25:3.3 26:5.5 27:0 28:15 29:26 30:0 31:0.12206573 32:5 33:4 34:5 #
0.018184146310544171964984627720696 1:0 2:3000 3:25.299999 4:0.0099999998 5:0.02 6:-0.039999999 7:0.30000001 8:0.1 9:0.30000001 10:0 11:3 12:4.6999998 13:4.6999998 14:4.5 15:0.30000001 16:7 17:4.5 18:6.1999998 19:8 20:2 21:10.4 22:8.1000004 23:14 24:13 25:3.2 26:0 27:9.1000004 28:25 29:38 30:0 31:0.12709031 32:4 33:4 34:5 #
0.018184146310544171964984627720696 1:0 2:3900 3:30 4:0.15000001 5:-0.31 6:0.059999999 7:0 8:0 9:0.2 10:0 11:0 12:3 13:3 14:4.4000001 15:0.5 16:5.3000002 17:6.5999999 18:6.5999999 19:7 20:-1 21:14.2 22:7.8000002 23:22 24:22 25:12 26:1.2 27:0 28:2 29:6 30:1 31:0.041666668 32:8 33:6 34:3 #
-0.60613821035147241733653800110915 1:0 2:3200 3:25.299999 4:0.079999998 5:-0.14 6:-0.050000001 7:0 8:0 9:0 10:0 11:0 12:2.3 13:3.8 14:4.3000002 15:0.30000001 16:9.3999996 17:4.5 18:7.1999998 19:7 20:2.7 21:11.8 22:8.1999998 23:9 24:11 25:3.3 26:8 27:2.0999999 28:29 29:45 30:2 31:0.12195122 32:4 33:4 34:4 #
0.018184146310544171964984627720696 1:0 2:3000 3:22.5 4:-0.059999999 5:0.23999999 6:-0.02 7:0 8:0 9:0 10:0 11:0 12:3.7 13:3.3 14:3 15:0.2 16:6.5999999 17:5 18:4.0999999 19:5 20:0.69999999 21:7.4000001 22:5 23:15 24:16 25:5 26:6.5 27:3.5 28:23 29:40 30:0 31:0.088888891 32:5 33:5 34:6 #
-0.60613821035147241733653800110915 1:5 2:3000 3:27 4:-0.07 5:0.029999999 6:0.090000004 7:1.7 8:1 9:6.5999999 10:0 11:1.2 12:4 13:2.4000001 14:4.6999998 15:0.60000002 16:8.1999998 17:6.5 18:3.9000001 19:19 20:-4.8000002 21:12.6 22:14.1 23:14 24:19 25:19.4 26:0.1 27:0 28:10 29:13 30:0 31:0.068421051 32:4 33:5 34:5 #
0.018184146310544171964984627720696 1:2 2:3900 3:28.299999 4:0.07 5:-0.16 6:-0.029999999 7:0 8:0 9:0 10:0 11:0 12:4.3000002 13:5.4000001 14:5.6999998 15:0.80000001 16:7.8000002 17:8.6000004 18:9.6999998 19:9 20:3.2 21:16.200001 22:9.5 23:8 24:12 25:5.5999999 26:6 27:14.2 28:29 29:43 30:2 31:0.098850578 32:4 33:4 34:4 #
0.018184146310544171964984627720696 1:0 2:3000 3:24.5 4:0.1 5:-0.25999999 6:0.029999999 7:0 8:0 9:0 10:0 11:0 12:1.7 13:2.9000001 14:0.69999999 15:0.60000002 16:9.3000002 17:4.5999999 18:5.6999998 19:1 20:1.5 21:9.8999996 22:1.3 23:21 24:22 25:2.9000001 26:4.5 27:6.4000001 28:18 29:22 30:1 31:0.058355439 32:7 33:7 34:6 #
0.018184146310544171964984627720696 1:0 2:3900 3:22.299999 4:0.050000001 5:-0.14 6:-0.079999998 7:0 8:0.1 9:0 10:0 11:6 12:7.6999998 13:6.6999998 14:4.5999999 15:0.89999998 16:8.1999998 17:15.1 18:11.2 19:8 20:2.9000001 21:19.5 22:7.1999998 23:9 24:3 25:0 26:0 27:7.0999999 28:43 29:64 30:1 31:0.17927171 32:1 33:1 34:3 #
0.018184146310544171964984627720696 1:0 2:3000 3:22 4:-0.0099999998 5:0 6:0.33000001 7:0 8:0 9:0 10:0 11:0 12:2 13:2.7 14:0.89999998 15:0 16:5.8000002 17:3.4000001 18:2.5 19:2 20:-0.89999998 21:6 22:1.7 23:19 24:32 25:0 26:0 27:1.2 28:6 29:16 30:0 31:0.078431375 32:7 33:5 34:5 #
0.018184146310544171964984627720696 1:4 2:3900 3:28 4:0.19 5:0.18000001 6:-0.02 7:0.69999999 8:0.80000001 9:0 10:0 11:7.5 12:4.3000002 13:3.5999999 14:5 15:0.2 16:7.5999999 17:4.5 18:4.6999998 19:8 20:1.2 21:8.3000002 22:10.6 23:29 24:25 25:0.5 26:3.4000001 27:9.6999998 28:10 29:17 30:1 31:0.090909094 32:5 33:5 34:3 #
0.018184146310544171964984627720696 1:0 2:3000 3:23.299999 4:-0.050000001 5:0.090000004 6:-0.039999999 7:0 8:0 9:0 10:0 11:0 12:3 13:2.7 14:2.5999999 15:0.30000001 16:7.3000002 17:2.5999999 18:4.4000001 19:4 20:0.60000002 21:8.1999998 22:4.5999999 23:16 24:13 25:3.0999999 26:1.5 27:3.0999999 28:11 29:22 30:1 31:0.046709128 32:7 33:7 34:6 #
0.018184146310544171964984627720696 1:0 2:3900 3:25.5 4:0.029999999 5:0.1 6:-0.0099999998 7:0 8:0.30000001 9:0.80000001 10:0.1 11:9 12:5 13:4.4000001 14:4.6999998 15:0.30000001 16:6.8000002 17:3.3 18:6.8000002 19:9 20:-1.9 21:15.4 22:9.6999998 23:20 24:13 25:5 26:1 27:3.9000001 28:21 29:42 30:2 31:0.089552239 32:6 33:5 34:4 #
0.018184146310544171964984627720696 1:0 2:3000 3:27 4:0 5:-0.33000001 6:-0.1 7:0 8:0 9:0 10:0 11:0 12:1.7 13:2 14:1.8 15:0.5 16:5.8000002 17:2.9000001 18:4.6999998 19:3 20:0.5 21:8.8000002 22:3.5 23:11 24:21 25:2.5999999 26:6 27:0 28:9 29:12 30:2 31:0.048780486 32:6 33:7 34:3 #
0.018184146310544171964984627720696 1:0 2:3900 3:24 4:-0.19 5:-0.1 6:-0.050000001 7:0.69999999 8:1 9:0 10:0 11:6 12:4.6999998 13:4.3000002 14:4.6999998 15:0.2 16:7.3000002 17:5 18:5.8000002 19:8 20:1.7 21:9.8000002 22:8.5 23:2 24:8 25:0 26:11 27:0.5 28:15 29:26 30:1 31:0.11016949 32:5 33:4 34:4 #
0.018184146310544171964984627720696 1:1 2:3000 3:29.299999 4:0.059999999 5:0.050000001 6:0.0099999998 7:0 8:0 9:0 10:0 11:0 12:2 13:2.8 14:1.1 15:0.60000002 16:7 17:3.9000001 18:4.6999998 19:2 20:-0.2 21:9.6000004 22:2 23:19 24:14 25:6.9000001 26:0 27:1.9 28:14 29:25 30:3 31:0.076452598 32:6 33:6 34:3 #
0.018184146310544171964984627720696 1:1 2:3900 3:28.799999 4:0.02 5:0.16 6:0.029999999 7:0 8:0 9:0.30000001 10:0 11:0 12:2.7 13:3 14:2.5999999 15:0.80000001 16:10.1 17:8.1000004 18:8 19:5 20:-0.60000002 21:16.6 22:6.5 23:27 24:20 25:0 26:4.3000002 27:20 28:9 29:13 30:2 31:0.104 32:4 33:5 34:1 #
0.018184146310544171964984627720696 1:0 2:3000 3:20.5 4:-0.02 5:0.13 6:-0.13 7:0 8:0.1 9:0 10:0 11:5 12:5 13:5.0999999 14:4.9000001 15:1.2 16:5.1999998 17:4.3000002 18:6.1999998 19:8 20:2.2 21:10.1 22:8.1999998 23:24 24:5 25:0 26:2 27:2.7 28:27 29:53 30:1 31:0.13695091 32:5 33:5 34:4 #
0.018184146310544171964984627720696 1:0 2:3900 3:23.799999 4:0.02 5:0.07 6:0.11 7:0.30000001 8:0.2 9:0.2 10:0 11:3 12:3.7 13:4.3000002 14:3.3 15:0.80000001 16:9.6999998 17:7.1999998 18:7.4000001 19:6 20:2.5999999 21:12.2 22:6.3000002 23:16 24:31 25:0 26:3.2 27:4.5999999 28:13 29:26 30:1 31:0.090277776 32:6 33:5 34:5 #
0.018184146310544171964984627720696 1:0 2:3000 3:22.799999 4:-0.15000001 5:-0.1 6:0 7:0 8:0 9:0 10:0 11:0 12:3.7 13:3.0999999 14:0.69999999 15:0.69999999 16:8 17:8.3000002 18:6.4000001 19:1 20:2.5999999 21:10.2 22:1.2 23:3 24:12 25:9.6999998 26:0 27:7.3000002 28:25 29:33 30:3 31:0.060998153 32:7 33:7 34:5 #
-0.60613821035147241733653800110915 1:2 2:3100 3:21.799999 4:0 5:-0.02 6:0.0099999998 7:0 8:0 9:0 10:0 11:0 12:2.3 13:4 14:4 15:0.2 16:9 17:5.9000001 18:7.5 19:7 20:1.3 21:13.6 22:6.6999998 23:8 24:12 25:3.2 26:0 27:14.4 28:13 29:24 30:2 31:0.13043478 32:3 33:3 34:1 #
0.018184146310544171964984627720696 1:0 2:3900 3:25.799999 4:0.079999998 5:0.36000001 6:0.12 7:0 8:0 9:0 10:0 11:0 12:4.6999998 13:3.0999999 14:2.0999999 15:0.1 16:6.1999998 17:6.9000001 18:3.7 19:3 20:-0.1 21:7.5 22:3.7 23:32 24:25 25:1.9 26:0 27:8.5 28:16 29:29 30:0 31:0.085545726 32:6 33:5 34:5 #
0.018184146310544171964984627720696 1:0 2:3000 3:29.799999 4:0 5:-0.029999999 6:-0.02 7:0 8:0 9:0 10:0 11:0 12:1.3 13:2.5999999 14:0.69999999 15:0.69999999 16:8.6999998 17:6 18:6.0999999 19:1 20:2.3 21:9.8999996 22:1.3 23:19 24:10 25:7.3000002 26:7.9000001 27:2.9000001 28:20 29:25 30:3 31:0.054347824 32:7 33:7 34:5 #
0.018184146310544171964984627720696 1:2 2:3800 3:21 4:-0.18000001 5:-0.28999999 6:-0.27000001 7:0 8:0 9:0 10:0 11:0 12:6.3000002 13:6.4000001 14:5 15:0.80000001 16:7.1999998 17:11.8 18:10.2 19:9 20:5.6999998 21:14.7 22:8.3999996 23:1 24:4 25:16.6 26:7.9000001 27:10.9 28:22 29:33 30:1 31:0.16923077 32:2 33:3 34:3 #
0.018184146310544171964984627720696 1:0 2:3000 3:21.299999 4:0.059999999 5:0.14 6:0.2 7:0 8:0 9:0 10:0 11:0 12:1.7 13:1.7 14:2.7 15:0.60000002 16:4.0999999 17:1.6 18:2.9000001 19:4 20:-0.40000001 21:6.1999998 22:4.5 23:18 24:32 25:0 26:0 27:0 28:10 29:17 30:2 31:0.035343036 32:9 33:7 34:5 #
0.018184146310544171964984627720696 1:3 2:3800 3:20.799999 4:-0.2 5:-0.07 6:-0.14 7:0.30000001 8:0.1 9:0 10:0 11:11 12:5 13:5 14:4.0999999 15:0.60000002 16:10.1 17:10 18:10.4 19:7 20:3.0999999 21:17.700001 22:8.1000004 23:1 24:5 25:12.2 26:10.8 27:7 28:33 29:44 30:2 31:0.13496932 32:3 33:3 34:2 #
0.018184146310544171964984627720696 1:0 2:3000 3:24.799999 4:-0.1 5:0.16 6:0.02 7:0 8:0 9:0 10:0 11:0 12:3.3 13:3.5999999 14:2.2 15:0.40000001 16:5.1999998 17:5.0999999 18:4.3000002 19:4 20:0.89999998 21:7.6999998 22:3.5999999 23:21 24:23 25:0 26:1.4 27:3.5999999 28:12 29:18 30:0 31:0.0703125 32:7 33:6 34:5 #
0.018184146310544171964984627720696 1:2 2:3800 3:21 4:0.14 5:-0.58999997 6:-0.11 7:0 8:0 9:0 10:0 11:0 12:5 13:4.8000002 14:3.9000001 15:0 16:12.4 17:12.7 18:11.2 19:7 20:7.8000002 21:14.5 22:7.9000001 23:16 24:27 25:12 26:14.4 27:11.8 28:16 29:21 30:1 31:0.13043478 32:3 33:4 34:3 #
0.018184146310544171964984627720696 1:0 2:3000 3:20.299999 4:0.050000001 5:-0.13 6:-0.039999999 7:0 8:0.2 9:0.2 10:0 11:0 12:2 13:3.8 14:3.3 15:0.80000001 16:6.0999999 17:2.0999999 18:6.1999998 19:6 20:0 21:12.5 22:5.8000002 23:9 24:11 25:3 26:0 27:3.3 28:25 29:43 30:3 31:0.1075 32:5 33:4 34:2 #
0.018184146310544171964984627720696 1:0 2:3800 3:21.799999 4:-0.1 5:-0.039999999 6:0.050000001 7:0 8:0 9:0 10:0 11:0 12:4.6999998 13:4.6999998 14:4.8000002 15:0 16:11.9 17:10.9 18:10.9 19:8 20:6.8000002 21:14.9 22:7.8000002 23:13 24:21 25:14.4 26:11.8 27:0 28:11 29:16 30:1 31:0.11764706 32:3 33:4 34:2 #
0.018184146310544171964984627720696 1:0 2:3000 3:19 4:0.0099999998 5:0.079999998 6:-0.13 7:0 8:0.2 9:0.2 10:0 11:0 12:1.3 13:3.7 14:3.2 15:0.80000001 16:5.8000002 17:1 18:5.6999998 19:6 20:-0.5 21:12 22:5.5999999 23:19 24:6 25:0 26:0 27:3 28:25 29:46 30:3 31:0.1047836 32:5 33:4 34:2 #
0.018184146310544171964984627720696 1:1 2:3800 3:19.799999 4:0 5:0.15000001 6:-0.07 7:0 8:0 9:0 10:0 11:0 12:5.3000002 13:5.0999999 14:3.9000001 15:0.5 16:10.5 17:8.3000002 18:10.2 19:7 20:2.4000001 21:17.9 22:8.3999996 23:16 24:9 25:10.8 26:7 27:7.1999998 28:30 29:41 30:1 31:0.14436619 32:3 33:3 34:4 #
0.018184146310544171964984627720696 1:0 2:3000 3:26 4:0.11 5:-0.23 6:0.059999999 7:0 8:0 9:0 10:0 11:0 12:1.7 13:1.9 14:2.8 15:0.60000002 16:4.6999998 17:2.4000001 18:3.5999999 19:5 20:0.40000001 21:6.9000001 22:4.6999998 23:23 24:24 25:0 26:0 27:4.6999998 28:10 29:15 30:2 31:0.036945812 32:8 33:8 34:4 #
0.018184146310544171964984627720696 1:1 2:3800 3:17.5 4:0.090000004 5:-0.14 6:0.20999999 7:0 8:0 9:0.2 10:0 11:0 12:3.7 13:5.3000002 14:5.5 15:0.89999998 16:8.8999996 17:5.4000001 18:11.3 19:10 20:3.3 21:19.4 22:10.4 23:19 24:21 25:3.3 26:3.4000001 27:0 28:34 29:44 30:2 31:0.1232493 32:3 33:4 34:2 #
0.018184146310544171964984627720696 1:3 2:3100 3:22.299999 4:0.14 5:-0.13 6:0.19 7:0.30000001 8:0.30000001 9:0 10:0 11:6.5 12:3 13:5.4000001 14:7.1999998 15:0.1 16:7.6999998 17:5.6999998 18:8.6000004 19:11 20:1.7 21:15.6 22:13.2 23:31 24:26 25:8.8000002 26:4.3000002 27:0 28:29 29:42 30:0 31:0.15613383 32:2 33:2 34:6 #
0.018184146310544171964984627720696 1:0 2:3000 3:24.799999 4:0.11 5:0.090000004 6:0.050000001 7:0 8:0 9:0 10:0 11:0 12:1.7 13:3.2 14:1.3 15:0 16:5.6999998 17:2.3 18:5 19:2 20:0.5 21:9.5 22:2.2 23:29 24:21 25:0 26:0 27:2.9000001 28:14 29:19 30:0 31:0.049868766 32:6 33:8 34:7 #
-0.24782314686771189649050484149484 1:2 2:3600 3:26.299999 4:-0.20999999 5:-0.090000004 6:-0.090000004 7:0.69999999 8:0.30000001 9:0 10:0.1 11:12 12:4.3000002 13:3.3 14:3.5 15:0.1 16:13.2 17:16.299999 18:9.6999998 19:6 20:3.0999999 21:16.299999 22:5.5999999 23:1 24:5 25:0 26:0 27:0 28:17 29:24 30:2 31:0.06818182 32:6 33:5 34:4 #
0.018184146310544171964984627720696 1:0 2:3800 3:25.5 4:0.029999999 5:0.1 6:-0.0099999998 7:0.30000001 8:0.1 9:0.80000001 10:0 11:10 12:3.3 13:5.9000001 14:4.3000002 15:0.40000001 16:6.8000002 17:3 18:8.1000004 19:8 20:-0.40000001 21:16.6 22:9.3999996 23:20 24:13 25:2.9000001 26:0 27:6 28:32 29:62 30:1 31:0.13219616 32:3 33:4 34:6 #
0.018184146310544171964984627720696 1:0 2:3000 3:27 4:0.16 5:-0.2 6:-0.039999999 7:0 8:0 9:0 10:0 11:0 12:1.7 13:1.7 14:2.3 15:0.69999999 16:2.8 17:3.0999999 18:3.0999999 19:4 20:-0.80000001 21:7.0999999 22:4 23:25 24:12 25:0 26:1.8 27:7.5999999 28:2 29:5 30:1 31:0.031055901 32:9 33:9 34:4 #
